{"learner":{"attributes":{"scikit_learn":"{\"_estimator_type\": \"classifier\"}"},"feature_names":["code_coverage","functional_coverage","assertions_failed","simulation_time","lines_modified","prior_failures","engineer_experience","test_name_bus_protocol_test","test_name_cache_eviction_test","test_name_dma_transfer_test","test_name_interrupt_test","test_name_memory_stress_test","test_name_pipeline_test","module_Bus_Interface","module_Cache_Controller","module_DMA_Engine","module_Instruction_Decoder","module_Interrupt_Controller","module_Memory_Controller"],"feature_types":["float","float","int","float","int","int","int","i","i","i","i","i","i","i","i","i","i","i","i"],"gradient_booster":{"model":{"cats":{"enc":[],"feature_segments":[],"sorted_idx":[]},"gbtree_model_param":{"num_parallel_tree":"1","num_trees":"400"},"iteration_indptr":[0,1,2,3,4,5,6,7,8,9,10,11,12,13,14,15,16,17,18,19,20,21,22,23,24,25,26,27,28,29,30,31,32,33,34,35,36,37,38,39,40,41,42,43,44,45,46,47,48,49,50,51,52,53,54,55,56,57,58,59,60,61,62,63,64,65,66,67,68,69,70,71,72,73,74,75,76,77,78,79,80,81,82,83,84,85,86,87,88,89,90,91,92,93,94,95,96,97,98,99,100,101,102,103,104,105,106,107,108,109,110,111,112,113,114,115,116,117,118,119,120,121,122,123,124,125,126,127,128,129,130,131,132,133,134,135,136,137,138,139,140,141,142,143,144,145,146,147,148,149,150,151,152,153,154,155,156,157,158,159,160,161,162,163,164,165,166,167,168,169,170,171,172,173,174,175,176,177,178,179,180,181,182,183,184,185,186,187,188,189,190,191,192,193,194,195,196,197,198,199,200,201,202,203,204,205,206,207,208,209,210,211,212,213,214,215,216,217,218,219,220,221,222,223,224,225,226,227,228,229,230,231,232,233,234,235,236,237,238,239,240,241,242,243,244,245,246,247,248,249,250,251,252,253,254,255,256,257,258,259,260,261,262,263,264,265,266,267,268,269,270,271,272,273,274,275,276,277,278,279,280,281,282,283,284,285,286,287,288,289,290,291,292,293,294,295,296,297,298,299,300,301,302,303,304,305,306,307,308,309,310,311,312,313,314,315,316,317,318,319,320,321,322,323,324,325,326,327,328,329,330,331,332,333,334,335,336,337,338,339,340,341,342,343,344,345,346,347,348,349,350,351,352,353,354,355,356,357,358,359,360,361,362,363,364,365,366,367,368,369,370,371,372,373,374,375,376,377,378,379,380,381,382,383,384,385,386,387,388,389,390,391,392,393,394,395,396,397,398,399,400],"tree_info":[0,0,0,0,0,0,0,0,0,0,0,0,0,0,0,0,0,0,0,0,0,0,0,0,0,0,0,0,0,0,0,0,0,0,0,0,0,0,0,0,0,0,0,0,0,0,0,0,0,0,0,0,0,0,0,0,0,0,0,0,0,0,0,0,0,0,0,0,0,0,0,0,0,0,0,0,0,0,0,0,0,0,0,0,0,0,0,0,0,0,0,0,0,0,0,0,0,0,0,0,0,0,0,0,0,0,0,0,0,0,0,0,0,0,0,0,0,0,0,0,0,0,0,0,0,0,0,0,0,0,0,0,0,0,0,0,0,0,0,0,0,0,0,0,0,0,0,0,0,0,0,0,0,0,0,0,0,0,0,0,0,0,0,0,0,0,0,0,0,0,0,0,0,0,0,0,0,0,0,0,0,0,0,0,0,0,0,0,0,0,0,0,0,0,0,0,0,0,0,0,0,0,0,0,0,0,0,0,0,0,0,0,0,0,0,0,0,0,0,0,0,0,0,0,0,0,0,0,0,0,0,0,0,0,0,0,0,0,0,0,0,0,0,0,0,0,0,0,0,0,0,0,0,0,0,0,0,0,0,0,0,0,0,0,0,0,0,0,0,0,0,0,0,0,0,0,0,0,0,0,0,0,0,0,0,0,0,0,0,0,0,0,0,0,0,0,0,0,0,0,0,0,0,0,0,0,0,0,0,0,0,0,0,0,0,0,0,0,0,0,0,0,0,0,0,0,0,0,0,0,0,0,0,0,0,0,0,0,0,0,0,0,0,0,0,0,0,0,0,0,0,0,0,0,0,0,0,0,0,0,0,0,0,0,0,0,0,0,0,0,0,0,0,0,0,0,0,0,0,0,0,0,0,0,0,0,0,0,0,0,0,0,0,0,0,0,0,0,0,0],"trees":[{"base_weights":[-2.1480066E-3,-1.2479234E0,8.4378374E-1,-1.890867E0,-2.4425723E-1,1.8960616E-1,1.2749761E0,-1.2424673E0,-2.2878556E0,5.022441E-1,-1.0337344E0,-5.5805254E-1,9.309583E-1,9.0102386E-1,1.4555677E0,-6.3221735E-1,-1.8315996E0,-2.5371912E0,-1.7949936E0,-1.5730567E-2,9.8775226E-1,-3.443793E-1,-1.6341232E0,4.7097743E-1,-1.1187989E0,1.3395312E0,3.4448802E-1,1.2563534E0,2.930119E-1,1.5052667E0,1.1644261E0,-1.2733803E0,4.272885E-2,-2.1012452E0,-9.434328E-1,-2.6521194E0,-2.1849873E0,-2.3350515E0,-1.2908455E0,6.4441437E-1,-6.9157654E-1,1.1683255E0,1.9467375E-1,-1.040792E0,3.54617E-1,-2.2083638E0,-1.0604647E0,1.1481481E0,-5.7885617E-2,-3.0365166E-1,-1.7276165E0,1.5127447E0,1.0819172E0,9.9726814E-1,-3.2532743E-1,1.450025E0,7.267665E-1,8.046977E-1,-4.1996908E-1,7.743869E-2,1.4101703E0,7.3460305E-1,1.380716E0,-1.06293835E-1,-4.2510845E-2,-3.8143646E-2,2.2855712E-2,-1.20754115E-1,-7.134664E-2,-9.137311E-2,-2.261679E-2,-5.124266E-2,-1.3302144E-1,-8.508091E-2,-1.2533824E-1,-8.2869165E-2,-1.2800653E-1,-3.26798E-2,-1.00767545E-1,5.2343518E-2,1.4751427E-2,-5.6743175E-2,-1.2638854E-2,4.561578E-2,7.1583785E-2,-7.4158194E-3,2.971533E-2,-7.9487085E-2,-2.5934666E-2,-2.6455084E-3,3.777366E-2,-9.0525575E-2,-1.2318444E-1,-7.506162E-2,-3.115139E-2,6.7293145E-2,3.4674373E-2,-1.744203E-2,2.9250145E-2,-3.247798E-2,2.1952182E-2,-1.00948766E-1,-5.762858E-2,1.8766822E-2,7.579058E-2,6.8049036E-2,2.9614499E-2,3.45518E-2,6.5686084E-2,-3.2779332E-2,1.8248674E-2,7.5498484E-2,6.373926E-2,5.727765E-2,4.6598176E-3,6.317717E-3,5.6666523E-2,-4.0478285E-2,1.4642562E-2,5.682699E-2,7.497598E-2,6.016943E-2,6.406928E-3,7.470352E-2,5.06743E-2],"categories":[],"categories_nodes":[],"categories_segments":[],"categories_sizes":[],"default_left":[0,0,0,0,0,0,0,0,0,0,0,0,0,0,0,0,0,0,0,0,0,0,0,0,0,0,0,0,0,0,0,0,0,0,0,0,0,0,0,0,0,0,0,0,0,0,0,0,0,0,0,0,0,0,0,0,0,0,0,0,0,0,0,0,0,0,0,0,0,0,0,0,0,0,0,0,0,0,0,0,0,0,0,0,0,0,0,0,0,0,0,0,0,0,0,0,0,0,0,0,0,0,0,0,0,0,0,0,0,0,0,0,0,0,0,0,0,0,0,0,0,0,0,0,0],"id":0,"left_children":[1,3,5,7,9,11,13,15,17,19,21,23,25,27,29,31,33,35,37,39,41,43,45,47,49,51,53,55,57,59,61,63,65,67,69,71,73,75,77,79,81,83,85,87,89,91,93,95,97,99,101,103,105,107,109,111,113,115,117,-1,119,121,123,-1,-1,-1,-1,-1,-1,-1,-1,-1,-1,-1,-1,-1,-1,-1,-1,-1,-1,-1,-1,-1,-1,-1,-1,-1,-1,-1,-1,-1,-1,-1,-1,-1,-1,-1,-1,-1,-1,-1,-1,-1,-1,-1,-1,-1,-1,-1,-1,-1,-1,-1,-1,-1,-1,-1,-1,-1,-1,-1,-1,-1,-1],"loss_changes":[7.784646E3,1.9273315E3,1.240752E3,4.6584375E2,6.8866095E2,9.699483E2,1.7775146E2,2.4821814E2,1.3408203E2,1.511119E2,2.3444324E2,5.0335654E2,2.1005902E2,1.867497E2,2.4095215E1,1.4815924E2,8.241382E1,2.4432617E1,1.01105225E2,1.3057962E2,4.418857E1,1.2965488E2,9.754486E1,1.10395874E2,2.7954742E2,2.1454407E1,1.5864825E2,5.4981873E1,1.1736156E2,4.1157227E0,2.3612122E1,6.1519684E1,5.6330395E1,5.3589478E1,3.5591965E1,4.822998E0,2.5192871E1,2.372998E1,9.102948E1,2.05117E1,2.7841309E1,1.5712585E1,8.136903E0,3.7378326E1,2.1814894E1,1.0838684E1,2.8682251E1,1.1214951E1,3.27378E1,6.2584564E1,5.17641E1,5.015869E-1,2.8101181E1,1.6887054E1,4.1154587E1,2.2669678E0,3.9242165E1,4.156385E1,3.763926E1,0E0,1.0253113E1,2.566391E1,5.7740173E0,0E0,0E0,0E0,0E0,0E0,0E0,0E0,0E0,0E0,0E0,0E0,0E0,0E0,0E0,0E0,0E0,0E0,0E0,0E0,0E0,0E0,0E0,0E0,0E0,0E0,0E0,0E0,0E0,0E0,0E0,0E0,0E0,0E0,0E0,0E0,0E0,0E0,0E0,0E0,0E0,0E0,0E0,0E0,0E0,0E0,0E0,0E0,0E0,0E0,0E0,0E0,0E0,0E0,0E0,0E0,0E0,0E0,0E0,0E0,0E0,0E0,0E0],"parents":[2147483647,0,0,1,1,2,2,3,3,4,4,5,5,6,6,7,7,8,8,9,9,10,10,11,11,12,12,13,13,14,14,15,15,16,16,17,17,18,18,19,19,20,20,21,21,22,22,23,23,24,24,25,25,26,26,27,27,28,28,29,29,30,30,31,31,32,32,33,33,34,34,35,35,36,36,37,37,38,38,39,39,40,40,41,41,42,42,43,43,44,44,45,45,46,46,47,47,48,48,49,49,50,50,51,51,52,52,53,53,54,54,55,55,56,56,57,57,58,58,60,60,61,61,62,62],"right_children":[2,4,6,8,10,12,14,16,18,20,22,24,26,28,30,32,34,36,38,40,42,44,46,48,50,52,54,56,58,60,62,64,66,68,70,72,74,76,78,80,82,84,86,88,90,92,94,96,98,100,102,104,106,108,110,112,114,116,118,-1,120,122,124,-1,-1,-1,-1,-1,-1,-1,-1,-1,-1,-1,-1,-1,-1,-1,-1,-1,-1,-1,-1,-1,-1,-1,-1,-1,-1,-1,-1,-1,-1,-1,-1,-1,-1,-1,-1,-1,-1,-1,-1,-1,-1,-1,-1,-1,-1,-1,-1,-1,-1,-1,-1,-1,-1,-1,-1,-1,-1,-1,-1,-1,-1],"split_conditions":[4E0,3E0,2E0,6.940913E1,7.51484E1,7E0,6E0,6.936294E1,2E0,2E0,6.8895226E1,6.8201294E1,7.9713936E1,8.0886505E1,9.279766E1,2E0,3E0,3E0,2E0,7.028879E1,8.8919846E1,2E0,2E0,6.609377E1,6.585026E1,7.438303E1,7.028879E1,8.3717285E1,7.506609E1,8.111962E1,3E0,1E0,1E0,2E0,1E0,4.0522114E1,6.512816E1,5.6349E1,7.24523E1,6.1528828E1,4E0,4E0,3E0,4E0,4E0,8.577184E1,4E0,6.2465332E1,6E0,6E0,6E0,2.341762E1,6.940913E1,1E0,9E0,7.173597E1,6.800834E1,3E0,4E0,7.743869E-2,7E0,7.173597E1,8.5462585E1,-1.06293835E-1,-4.2510845E-2,-3.8143646E-2,2.2855712E-2,-1.20754115E-1,-7.134664E-2,-9.137311E-2,-2.261679E-2,-5.124266E-2,-1.3302144E-1,-8.508091E-2,-1.2533824E-1,-8.2869165E-2,-1.2800653E-1,-3.26798E-2,-1.00767545E-1,5.2343518E-2,1.4751427E-2,-5.6743175E-2,-1.2638854E-2,4.561578E-2,7.1583785E-2,-7.4158194E-3,2.971533E-2,-7.9487085E-2,-2.5934666E-2,-2.6455084E-3,3.777366E-2,-9.0525575E-2,-1.2318444E-1,-7.506162E-2,-3.115139E-2,6.7293145E-2,3.4674373E-2,-1.744203E-2,2.9250145E-2,-3.247798E-2,2.1952182E-2,-1.00948766E-1,-5.762858E-2,1.8766822E-2,7.579058E-2,6.8049036E-2,2.9614499E-2,3.45518E-2,6.5686084E-2,-3.2779332E-2,1.8248674E-2,7.5498484E-2,6.373926E-2,5.727765E-2,4.6598176E-3,6.317717E-3,5.6666523E-2,-4.0478285E-2,1.4642562E-2,5.682699E-2,7.497598E-2,6.016943E-2,6.406928E-3,7.470352E-2,5.06743E-2],"split_indices":[5,2,2,0,0,5,5,1,2,5,1,0,0,0,0,5,5,5,5,1,1,5,5,1,1,1,1,1,1,1,2,2,2,2,2,1,1,1,1,0,2,2,5,2,2,0,2,0,5,5,5,3,0,2,5,1,0,2,2,0,5,1,1,0,0,0,0,0,0,0,0,0,0,0,0,0,0,0,0,0,0,0,0,0,0,0,0,0,0,0,0,0,0,0,0,0,0,0,0,0,0,0,0,0,0,0,0,0,0,0,0,0,0,0,0,0,0,0,0,0,0,0,0,0,0],"split_type":[0,0,0,0,0,0,0,0,0,0,0,0,0,0,0,0,0,0,0,0,0,0,0,0,0,0,0,0,0,0,0,0,0,0,0,0,0,0,0,0,0,0,0,0,0,0,0,0,0,0,0,0,0,0,0,0,0,0,0,0,0,0,0,0,0,0,0,0,0,0,0,0,0,0,0,0,0,0,0,0,0,0,0,0,0,0,0,0,0,0,0,0,0,0,0,0,0,0,0,0,0,0,0,0,0,0,0,0,0,0,0,0,0,0,0,0,0,0,0,0,0,0,0,0,0],"sum_hessian":[7.384928E3,2.986433E3,4.398495E3,1.8197964E3,1.1666367E3,1.7479927E3,2.6505027E3,6.926401E2,1.1271562E3,5.998263E2,5.668104E2,8.7041766E2,8.7757495E2,8.651074E2,1.7853953E3,3.4124066E2,3.5139938E2,7.457425E2,3.814138E2,2.9067795E2,3.0914835E2,2.645885E2,3.0222195E2,3.0707043E2,5.633472E2,5.1647864E2,3.6109634E2,5.453386E2,3.1976883E2,1.5214994E3,2.6389587E2,1.745453E2,1.6669537E2,2.6851346E2,8.2885925E1,5.5734436E2,1.883981E2,1.8239522E2,1.9901859E2,1.4707057E2,1.4360738E2,2.5142834E2,5.7720005E1,1.3229425E2,1.3229425E2,1.4961026E2,1.526117E2,1.341413E2,1.7292914E2,2.415005E2,3.2184674E2,3.0591602E2,2.1056258E2,1.826261E2,1.7847026E2,3.9803717E2,1.4730145E2,1.860893E2,1.3367953E2,1.033419E3,4.8808035E2,8.981233E1,1.7408354E2,5.6565605E1,1.1797969E2,5.6334724E1,1.1036065E2,1.814717E2,8.704177E1,2.8629124E1,5.4256805E1,3.4632003E0,5.5388116E2,7.7806564E1,1.1059153E2,4.7561283E1,1.3483394E2,1.0689745E2,9.212113E1,6.741697E1,7.965361E1,7.0649284E1,7.2958084E1,1.2975458E2,1.21673775E2,3.1399683E1,2.6320322E1,6.3492004E1,6.8802246E1,6.6031685E1,6.6262566E1,6.1644966E1,8.796529E1,7.480513E1,7.7806564E1,9.212113E1,4.2020164E1,1.19364975E2,5.3564163E1,1.6484834E2,7.665217E1,2.1194786E2,1.0989889E2,1.1544001E0,3.0476163E2,1.329869E2,7.757568E1,9.442993E1,8.819617E1,1.2075025E2,5.7720005E1,2.909088E2,1.0712833E2,8.819617E1,5.9105286E1,6.1183205E1,1.2490609E2,8.634913E1,4.7330406E1,1.2352081E2,3.6455954E2,5.0100964E1,3.9711365E1,1.3067809E2,4.3405445E1],"tree_param":{"num_deleted":"0","num_feature":"19","num_nodes":"125","size_leaf_vector":"1"}},{"base_weights":[-2.1359983E-3,-1.1711819E0,8.1210107E-1,-1.7643183E0,-2.3848058E-1,1.8115269E-1,1.2371322E0,-1.0995889E0,-2.062991E0,4.633756E-1,-9.3812567E-1,-5.048858E-1,8.909704E-1,8.793829E-1,1.4134865E0,-4.9507287E-1,-1.6240419E0,-2.2777061E0,-1.6418778E0,-3.592332E-2,9.569726E-1,-3.9290512E-1,-1.6594732E0,1.9807698E-1,-1.230175E0,1.2903991E0,3.5935113E-1,1.1200778E0,5.3113196E-2,1.2593387E0,1.4911305E0,-1.0890822E0,1.12745576E-1,-1.9195489E0,-9.138413E-1,-2.4049766E0,-1.8862541E0,-2.0966165E0,-1.2003003E0,7.674672E-1,-5.332117E-1,1.1560673E0,1.3990565E-1,-1.001909E0,2.139927E-1,-1.9467185E0,-7.865826E-1,8.802082E-1,-3.8401747E-1,-5.3867316E-1,-1.9065007E0,7.382565E-2,1.050665E0,9.608592E-1,-2.7143583E-1,1.3048427E0,6.096448E-1,6.706742E-1,-6.6458404E-1,8.442075E-1,1.3943475E0,1.5111314E0,1.3573551E0,-9.4132975E-2,-3.4724873E-2,-3.3009753E-2,2.6046285E-2,-1.0635819E-1,-6.110545E-2,-9.939286E-2,-2.6797736E-2,-9.653176E-2,-1.2260288E-1,-6.2647514E-2,-1.0795673E-1,-7.5226925E-2,-1.1603391E-1,-3.8135048E-2,-9.489255E-2,5.1107462E-2,5.775688E-3,-4.9366683E-2,-3.3570286E-3,4.5460645E-2,6.921924E-2,-1.7522704E-2,3.280599E-2,-7.7886134E-2,-2.3145435E-2,3.1341262E-2,-1.5081313E-2,-1.0707213E-1,-7.73648E-2,-6.0870916E-2,-1.775024E-2,6.341906E-2,2.592063E-2,-3.2921296E-2,1.1084543E-2,-3.9686054E-2,1.7728343E-3,-1.2065629E-1,-8.335297E-2,6.662768E-2,2.7340839E-2,3.267998E-2,6.4678095E-2,-2.990876E-2,2.2537585E-2,7.1196094E-2,4.79146E-2,-5.8329115E-3,4.8327517E-2,-5.6956536E-3,5.114481E-2,-6.3239776E-2,-1.6918276E-2,6.2478084E-2,9.117733E-3,7.301315E-2,5.4263692E-2,7.574952E-2,5.3552568E-2,7.466503E-2,5.2795805E-2],"categories":[],"categories_nodes":[],"categories_segments":[],"categories_sizes":[],"default_left":[0,0,0,0,0,0,0,0,0,0,0,0,0,0,0,0,0,0,0,0,0,0,0,0,0,0,0,0,0,0,0,0,0,0,0,0,0,0,0,0,0,0,0,0,0,0,0,0,0,0,0,0,0,0,0,0,0,0,0,0,0,0,0,0,0,0,0,0,0,0,0,0,0,0,0,0,0,0,0,0,0,0,0,0,0,0,0,0,0,0,0,0,0,0,0,0,0,0,0,0,0,0,0,0,0,0,0,0,0,0,0,0,0,0,0,0,0,0,0,0,0,0,0,0,0],"id":1,"left_children":[1,3,5,7,9,11,13,15,17,19,21,23,25,27,29,31,33,35,37,39,41,43,45,47,49,51,53,55,57,59,61,63,65,67,69,71,73,75,77,79,81,83,85,87,89,91,93,95,97,99,101,-1,103,105,107,109,111,113,115,117,119,121,123,-1,-1,-1,-1,-1,-1,-1,-1,-1,-1,-1,-1,-1,-1,-1,-1,-1,-1,-1,-1,-1,-1,-1,-1,-1,-1,-1,-1,-1,-1,-1,-1,-1,-1,-1,-1,-1,-1,-1,-1,-1,-1,-1,-1,-1,-1,-1,-1,-1,-1,-1,-1,-1,-1,-1,-1,-1,-1,-1,-1,-1,-1],"loss_changes":[7.0595503E3,1.6840288E3,1.1721223E3,3.6721777E2,5.822123E2,8.5786505E2,1.635415E2,1.8279456E2,1.1226416E2,1.4596272E2,2.3282507E2,4.5707413E2,1.8337E2,1.7198138E2,1.904126E1,9.7770676E1,6.3231018E1,3.7666992E1,8.519934E1,1.183951E2,4.8281494E1,1.25661026E2,6.2465332E1,1.8134718E2,2.052851E2,2.0487244E1,1.4170793E2,6.2378845E1,8.7404E1,3.199701E1,1.0444336E0,4.155275E1,4.2803802E1,2.893097E1,3.6635414E1,9.461426E0,3.401483E1,2.4880432E1,6.691568E1,1.8697708E1,3.8666504E1,1.22291565E1,1.5287149E1,5.0084305E1,3.6551067E1,1.1570251E1,1.1630383E1,2.8863037E1,4.1144764E1,3.217204E1,2.298291E1,0E0,3.0424057E1,1.8684448E1,4.339225E1,1.8895447E1,4.6748497E1,2.9396343E1,1.7437511E1,3.942267E1,7.4832764E0,7.15332E-2,4.9921875E0,0E0,0E0,0E0,0E0,0E0,0E0,0E0,0E0,0E0,0E0,0E0,0E0,0E0,0E0,0E0,0E0,0E0,0E0,0E0,0E0,0E0,0E0,0E0,0E0,0E0,0E0,0E0,0E0,0E0,0E0,0E0,0E0,0E0,0E0,0E0,0E0,0E0,0E0,0E0,0E0,0E0,0E0,0E0,0E0,0E0,0E0,0E0,0E0,0E0,0E0,0E0,0E0,0E0,0E0,0E0,0E0,0E0,0E0,0E0,0E0,0E0,0E0],"parents":[2147483647,0,0,1,1,2,2,3,3,4,4,5,5,6,6,7,7,8,8,9,9,10,10,11,11,12,12,13,13,14,14,15,15,16,16,17,17,18,18,19,19,20,20,21,21,22,22,23,23,24,24,25,25,26,26,27,27,28,28,29,29,30,30,31,31,32,32,33,33,34,34,35,35,36,36,37,37,38,38,39,39,40,40,41,41,42,42,43,43,44,44,45,45,46,46,47,47,48,48,49,49,50,50,52,52,53,53,54,54,55,55,56,56,57,57,58,58,59,59,60,60,61,61,62,62],"right_children":[2,4,6,8,10,12,14,16,18,20,22,24,26,28,30,32,34,36,38,40,42,44,46,48,50,52,54,56,58,60,62,64,66,68,70,72,74,76,78,80,82,84,86,88,90,92,94,96,98,100,102,-1,104,106,108,110,112,114,116,118,120,122,124,-1,-1,-1,-1,-1,-1,-1,-1,-1,-1,-1,-1,-1,-1,-1,-1,-1,-1,-1,-1,-1,-1,-1,-1,-1,-1,-1,-1,-1,-1,-1,-1,-1,-1,-1,-1,-1,-1,-1,-1,-1,-1,-1,-1,-1,-1,-1,-1,-1,-1,-1,-1,-1,-1,-1,-1,-1,-1,-1,-1,-1,-1],"split_conditions":[4E0,3E0,2E0,6.5858955E1,7.472963E1,7E0,6E0,6.84195E1,2E0,2E0,7.460108E1,7.597068E1,7.930724E1,8.86619E1,3E0,2E0,2E0,3E0,2E0,6.275331E1,8.8919846E1,2E0,3E0,6.747718E1,7.004151E1,7.294001E1,7.047762E1,8.3717285E1,7.294001E1,7E0,9.319927E1,1E0,1E0,3E0,1E0,4.649755E1,7.7136856E1,7.577484E1,7.6907646E1,6.800834E1,4E0,4E0,4E0,4E0,5.896099E1,2E0,4E0,6.2465332E1,6E0,6E0,5E0,7.382565E-2,6.940913E1,1E0,9E0,7.8499664E1,3E0,3E0,3E0,8.107599E1,9.087117E1,9.932534E1,8.0174995E1,-9.4132975E-2,-3.4724873E-2,-3.3009753E-2,2.6046285E-2,-1.0635819E-1,-6.110545E-2,-9.939286E-2,-2.6797736E-2,-9.653176E-2,-1.2260288E-1,-6.2647514E-2,-1.0795673E-1,-7.5226925E-2,-1.1603391E-1,-3.8135048E-2,-9.489255E-2,5.1107462E-2,5.775688E-3,-4.9366683E-2,-3.3570286E-3,4.5460645E-2,6.921924E-2,-1.7522704E-2,3.280599E-2,-7.7886134E-2,-2.3145435E-2,3.1341262E-2,-1.5081313E-2,-1.0707213E-1,-7.73648E-2,-6.0870916E-2,-1.775024E-2,6.341906E-2,2.592063E-2,-3.2921296E-2,1.1084543E-2,-3.9686054E-2,1.7728343E-3,-1.2065629E-1,-8.335297E-2,6.662768E-2,2.7340839E-2,3.267998E-2,6.4678095E-2,-2.990876E-2,2.2537585E-2,7.1196094E-2,4.79146E-2,-5.8329115E-3,4.8327517E-2,-5.6956536E-3,5.114481E-2,-6.3239776E-2,-1.6918276E-2,6.2478084E-2,9.117733E-3,7.301315E-2,5.4263692E-2,7.574952E-2,5.3552568E-2,7.466503E-2,5.2795805E-2],"split_indices":[5,2,2,0,0,5,5,1,2,5,1,0,0,0,2,5,2,5,5,1,1,5,5,1,1,1,1,1,1,5,0,2,2,5,5,1,0,0,1,0,2,2,2,2,1,5,2,0,5,5,5,0,0,2,5,0,2,2,2,0,0,1,1,0,0,0,0,0,0,0,0,0,0,0,0,0,0,0,0,0,0,0,0,0,0,0,0,0,0,0,0,0,0,0,0,0,0,0,0,0,0,0,0,0,0,0,0,0,0,0,0,0,0,0,0,0,0,0,0,0,0,0,0,0,0],"split_type":[0,0,0,0,0,0,0,0,0,0,0,0,0,0,0,0,0,0,0,0,0,0,0,0,0,0,0,0,0,0,0,0,0,0,0,0,0,0,0,0,0,0,0,0,0,0,0,0,0,0,0,0,0,0,0,0,0,0,0,0,0,0,0,0,0,0,0,0,0,0,0,0,0,0,0,0,0,0,0,0,0,0,0,0,0,0,0,0,0,0,0,0,0,0,0,0,0,0,0,0,0,0,0,0,0,0,0,0,0,0,0,0,0,0,0,0,0,0,0,0,0,0,0,0,0],"sum_hessian":[7.4144253E3,3.0438135E3,4.370612E3,1.8600516E3,1.1837618E3,1.7597426E3,2.6108694E3,5.781018E2,1.2819497E3,5.911157E2,5.926461E2,8.950072E2,8.6473535E2,8.6405316E2,1.7468164E3,2.6945538E2,3.0864642E2,8.461233E2,4.3582645E2,2.943215E2,2.9679422E2,3.38409E2,2.542371E2,4.548681E2,4.4013913E2,4.9294046E2,3.717949E2,6.688573E2,1.9519586E2,5.9090497E2,1.1559114E3,1.3587527E2,1.3358011E2,2.167544E2,9.1892044E1,6.3464233E2,2.11481E2,2.1286693E2,2.2295952E2,1.12320175E2,1.8200131E2,2.3831029E2,5.848394E1,1.6858655E2,1.6982246E2,1.9036336E2,6.387375E1,2.0920164E2,2.4566646E2,2.1851616E2,2.2162296E2,2.7459995E2,2.183405E2,1.9004645E2,1.8174844E2,4.8995038E2,1.789069E2,1.0495239E2,9.024346E1,1.4679271E2,4.4411227E2,9.966112E2,1.5930013E2,4.3871334E1,9.200394E1,4.59502E1,8.762991E1,1.6545233E2,5.1302063E1,2.280787E1,6.9084175E1,6.1097065E1,5.735452E2,6.536734E1,1.4611366E2,6.055816E1,1.5230878E2,1.382952E2,8.4664314E1,8.036011E1,3.1960068E1,9.1615875E1,9.038544E1,1.1690074E2,1.2140954E2,3.0157745E1,2.8326195E1,8.206827E1,8.651827E1,9.419176E1,7.563071E1,1.2504218E2,6.5321175E1,3.105314E1,3.2820606E1,9.9713036E1,1.094886E2,1.690111E2,7.6655365E1,1.5103764E2,6.747851E1,6.82138E1,1.5340916E2,1.3895462E2,7.938588E1,1.0034225E2,8.970421E1,1.25252266E2,5.6496178E1,3.623378E2,1.2761258E2,5.916969E1,1.1973721E2,3.2727432E1,7.222496E1,3.0763805E1,5.9479656E1,9.048617E1,5.6306545E1,3.6297656E2,8.113572E1,9.855269E2,1.1084341E1,1.0706237E2,5.223775E1],"tree_param":{"num_deleted":"0","num_feature":"19","num_nodes":"125","size_leaf_vector":"1"}},{"base_weights":[1.338695E-3,-1.0969901E0,7.8420264E-1,-1.774036E0,-1.9732283E-1,1.270366E-1,1.2247846E0,-2.2358923E0,-1.044102E0,-1.285367E0,5.7011527E-1,-8.668733E-1,8.335981E-1,6.902279E-1,1.360724E0,-1.8338622E0,-2.3249702E0,3.205763E-2,-1.6438222E0,-2.7459395E-1,-1.9057605E0,1.1254754E0,-3.2483557E-1,-1.7514653E0,1.0215574E-1,6.945989E-2,1.2183431E0,-1.6557471E-1,1.1359853E0,1.026064E0,1.4280276E0,-2.117986E0,-9.0232676E-1,-1.2020899E-1,-2.1156647E0,-9.164476E-1,7.0669216E-1,-2.0998452E0,-9.782434E-1,3.7256894E-1,-1.5687071E0,-2.1261363E0,-1.1677973E0,1.3556149E0,4.9231943E-1,3.8649613E-1,-1.297669E0,-7.384064E-1,-2.2609224E0,8.725198E-1,-9.657173E-1,8.42228E-1,-1.1051596E0,1.3264139E0,6.1544377E-1,5.2718794E-1,-1.5099219E0,1.3262975E0,4.9061877E-1,3.086704E-1,1.2728997E0,7.375513E-2,1.2991731E0,-7.9880215E-2,-1.17769934E-1,3.430248E-3,-1.0858003E-1,-7.423433E-2,-1.11289166E-1,3.834394E-3,-9.5114596E-2,5.7213943E-2,-1.1801277E-2,-7.2284594E-2,-1.1734017E-1,-7.177294E-2,1.8452251E-2,-2.2993507E-2,5.9873637E-2,-9.446115E-2,-1.51090445E-2,-6.812524E-2,-1.1140758E-1,1.4028165E-3,-8.173435E-2,4.8815764E-2,7.408311E-2,-2.6977012E-2,5.1523376E-2,-1.9090403E-2,5.6914784E-2,-1.02041356E-1,-2.4089558E-2,3.4275338E-2,-8.4582865E-2,-7.934216E-2,-1.2224984E-1,6.579422E-2,1.168097E-2,6.9365688E-3,-9.056772E-2,6.0049623E-2,-2.266676E-3,-3.115096E-3,-9.67849E-2,5.444795E-2,7.230442E-2,-1.4751896E-2,5.5209585E-2,-2.2149539E-2,5.9590068E-2,-1.0719831E-1,-4.367329E-3,7.100224E-2,3.5307102E-2,5.738129E-2,-2.4992412E-2,5.0609645E-2,-3.91484E-2,4.6047863E-2,7.246407E-2,4.4887546E-2,7.118524E-2],"categories":[],"categories_nodes":[],"categories_segments":[],"categories_sizes":[],"default_left":[0,0,0,0,0,0,0,0,0,0,0,0,0,0,0,0,0,0,0,0,0,0,0,0,0,0,0,0,0,0,0,0,0,0,0,0,0,0,0,0,0,0,0,0,0,0,0,0,0,0,0,0,0,0,0,0,0,0,0,0,0,0,0,0,0,0,0,0,0,0,0,0,0,0,0,0,0,0,0,0,0,0,0,0,0,0,0,0,0,0,0,0,0,0,0,0,0,0,0,0,0,0,0,0,0,0,0,0,0,0,0,0,0,0,0,0,0,0,0,0,0,0,0],"id":2,"left_children":[1,3,5,7,9,11,13,15,17,19,21,23,25,27,29,31,33,35,37,39,41,43,45,47,49,51,53,55,57,59,61,63,65,-1,67,69,71,73,75,77,79,81,83,85,87,89,91,93,95,97,99,101,103,105,107,109,111,113,115,117,119,-1,121,-1,-1,-1,-1,-1,-1,-1,-1,-1,-1,-1,-1,-1,-1,-1,-1,-1,-1,-1,-1,-1,-1,-1,-1,-1,-1,-1,-1,-1,-1,-1,-1,-1,-1,-1,-1,-1,-1,-1,-1,-1,-1,-1,-1,-1,-1,-1,-1,-1,-1,-1,-1,-1,-1,-1,-1,-1,-1,-1,-1],"loss_changes":[6.3329043E3,1.8666201E3,1.2448889E3,5.8722363E2,1.1006597E3,1.2135106E3,1.8611841E2,3.406201E1,4.3865253E2,3.413192E2,3.8462708E2,6.157027E2,2.9682874E2,2.0005591E2,4.4736572E1,5.071826E1,9.376465E0,1.5689235E2,1.3040503E2,1.7520706E2,5.2425903E1,6.888257E1,2.0590802E2,1.9210083E2,2.835249E2,3.0888632E2,4.2945496E1,1.687183E2,4.1675934E1,6.105435E1,8.427002E0,1.4970337E1,5.9570538E1,0E0,1.3915161E1,9.9935555E1,5.9363846E1,3.8303345E1,1.1098428E2,9.655104E1,2.7723633E1,1.7123169E1,4.4633797E1,1.5262573E1,7.2083954E1,9.9915535E1,7.517052E1,1.7369762E2,2.7057129E1,5.638655E1,1.3518988E2,6.5397156E1,1.1686061E2,1.4585876E1,4.658725E1,7.7729706E1,5.535283E1,1.4435852E1,5.267785E1,7.002791E1,1.4671936E1,0E0,2.1950378E1,0E0,0E0,0E0,0E0,0E0,0E0,0E0,0E0,0E0,0E0,0E0,0E0,0E0,0E0,0E0,0E0,0E0,0E0,0E0,0E0,0E0,0E0,0E0,0E0,0E0,0E0,0E0,0E0,0E0,0E0,0E0,0E0,0E0,0E0,0E0,0E0,0E0,0E0,0E0,0E0,0E0,0E0,0E0,0E0,0E0,0E0,0E0,0E0,0E0,0E0,0E0,0E0,0E0,0E0,0E0,0E0,0E0,0E0,0E0,0E0],"parents":[2147483647,0,0,1,1,2,2,3,3,4,4,5,5,6,6,7,7,8,8,9,9,10,10,11,11,12,12,13,13,14,14,15,15,16,16,17,17,18,18,19,19,20,20,21,21,22,22,23,23,24,24,25,25,26,26,27,27,28,28,29,29,30,30,31,31,32,32,34,34,35,35,36,36,37,37,38,38,39,39,40,40,41,41,42,42,43,43,44,44,45,45,46,46,47,47,48,48,49,49,50,50,51,51,52,52,53,53,54,54,55,55,56,56,57,57,58,58,59,59,60,60,62,62],"right_children":[2,4,6,8,10,12,14,16,18,20,22,24,26,28,30,32,34,36,38,40,42,44,46,48,50,52,54,56,58,60,62,64,66,-1,68,70,72,74,76,78,80,82,84,86,88,90,92,94,96,98,100,102,104,106,108,110,112,114,116,118,120,-1,122,-1,-1,-1,-1,-1,-1,-1,-1,-1,-1,-1,-1,-1,-1,-1,-1,-1,-1,-1,-1,-1,-1,-1,-1,-1,-1,-1,-1,-1,-1,-1,-1,-1,-1,-1,-1,-1,-1,-1,-1,-1,-1,-1,-1,-1,-1,-1,-1,-1,-1,-1,-1,-1,-1,-1,-1,-1,-1,-1,-1],"split_conditions":[4E0,1.15E2,8E1,3E0,2E0,2E0,1E0,5.9527523E1,6.800834E1,6.940913E1,8.146096E1,7E0,6E0,6E0,5E0,3E0,8.2E1,4.7E1,6.8E1,7.806258E1,3E0,8.392707E1,7.600009E1,6.744093E1,8.008215E1,7.952213E1,9.279766E1,8.305779E1,8.705881E1,2E0,8.64883E1,6.1334126E1,7.438303E1,-1.2020899E-1,4.9368874E1,7.125408E1,8.111962E1,5.8023533E1,3E0,2E0,3E0,4.770184E1,5.6123356E1,1E0,3E0,2E0,2E0,6.345327E1,5.42643E1,7.438303E1,6.747718E1,8.392707E1,6.747718E1,3E0,3E0,1.34E2,1.58E2,9.357608E1,8.2275276E1,8.164832E1,3E0,7.375513E-2,2E0,-7.9880215E-2,-1.17769934E-1,3.430248E-3,-1.0858003E-1,-7.423433E-2,-1.11289166E-1,3.834394E-3,-9.5114596E-2,5.7213943E-2,-1.1801277E-2,-7.2284594E-2,-1.1734017E-1,-7.177294E-2,1.8452251E-2,-2.2993507E-2,5.9873637E-2,-9.446115E-2,-1.51090445E-2,-6.812524E-2,-1.1140758E-1,1.4028165E-3,-8.173435E-2,4.8815764E-2,7.408311E-2,-2.6977012E-2,5.1523376E-2,-1.9090403E-2,5.6914784E-2,-1.02041356E-1,-2.4089558E-2,3.4275338E-2,-8.4582865E-2,-7.934216E-2,-1.2224984E-1,6.579422E-2,1.168097E-2,6.9365688E-3,-9.056772E-2,6.0049623E-2,-2.266676E-3,-3.115096E-3,-9.67849E-2,5.444795E-2,7.230442E-2,-1.4751896E-2,5.5209585E-2,-2.2149539E-2,5.9590068E-2,-1.0719831E-1,-4.367329E-3,7.100224E-2,3.5307102E-2,5.738129E-2,-2.4992412E-2,5.0609645E-2,-3.91484E-2,4.6047863E-2,7.246407E-2,4.4887546E-2,7.118524E-2],"split_indices":[5,4,4,2,2,2,2,0,0,0,0,5,5,5,5,5,4,4,4,1,5,1,1,0,0,0,0,0,1,2,0,1,1,0,1,1,1,1,5,5,5,1,1,5,2,5,5,1,1,1,1,1,1,2,2,4,4,0,0,0,2,0,2,0,0,0,0,0,0,0,0,0,0,0,0,0,0,0,0,0,0,0,0,0,0,0,0,0,0,0,0,0,0,0,0,0,0,0,0,0,0,0,0,0,0,0,0,0,0,0,0,0,0,0,0,0,0,0,0,0,0,0,0],"split_type":[0,0,0,0,0,0,0,0,0,0,0,0,0,0,0,0,0,0,0,0,0,0,0,0,0,0,0,0,0,0,0,0,0,0,0,0,0,0,0,0,0,0,0,0,0,0,0,0,0,0,0,0,0,0,0,0,0,0,0,0,0,0,0,0,0,0,0,0,0,0,0,0,0,0,0,0,0,0,0,0,0,0,0,0,0,0,0,0,0,0,0,0,0,0,0,0,0,0,0,0,0,0,0,0,0,0,0,0,0,0,0,0,0,0,0,0,0,0,0,0,0,0,0],"sum_hessian":[7.3631943E3,3.0640483E3,4.299146E3,1.7477811E3,1.3162673E3,1.7259824E3,2.5731638E3,1.0691973E3,6.785838E2,5.4413654E2,7.721308E2,7.1706726E2,1.0089151E3,5.22927E2,2.0502368E3,1.9784798E2,8.713493E2,2.4317262E2,4.3541116E2,2.075041E2,3.3663245E2,4.7630377E2,2.9582703E2,3.7444363E2,3.4262366E2,3.3826697E2,6.7064813E2,1.7930696E2,3.4362006E2,3.4600613E2,1.7042306E3,1.50631E2,4.721698E1,6.245194E2,2.4682988E2,1.009222E2,1.4225043E2,2.571021E2,1.7830905E2,1.388032E2,6.8700905E1,2.577733E2,7.885918E1,3.484926E2,1.2781116E2,1.7122833E2,1.2459871E2,1.2611416E2,2.4832947E2,1.9914401E2,1.4347963E2,2.0420557E2,1.3406142E2,5.6768884E2,1.029593E2,1.18730934E2,6.0576023E1,2.6455136E2,7.9068695E1,8.915118E1,2.5685495E2,1.2405638E3,4.6366684E2,4.9613365E1,1.01017624E2,2.7288544E1,1.9928436E1,3.8828094E1,2.0800179E2,5.0734592E1,5.018761E1,9.70079E1,4.5242527E1,7.233968E1,1.8476242E2,1.330812E2,4.522784E1,6.930631E1,6.9496895E1,5.4433838E1,1.4267066E1,3.2070023E1,2.2570326E2,2.2407173E1,5.6452003E1,8.91049E1,2.593877E2,4.380866E1,8.4002495E1,8.492799E1,8.630033E1,6.4419556E1,6.0179153E1,5.0684837E1,7.542932E1,5.533044E1,1.9299902E2,1.1693642E2,8.2207596E1,6.2581146E1,8.089848E1,1.4517194E2,5.9033623E1,5.9910446E1,7.415097E1,1.9361757E2,3.7407126E2,3.6101906E1,6.685739E1,4.84048E1,7.032613E1,4.1550007E1,1.9026014E1,2.2869093E2,3.586041E1,4.744097E1,3.1627722E1,5.4257137E1,3.4894035E1,8.782838E1,1.6902657E2,1.117274E2,3.5193945E2],"tree_param":{"num_deleted":"0","num_feature":"19","num_nodes":"123","size_leaf_vector":"1"}},{"base_weights":[4.4718743E-3,-1.0278698E0,7.5923234E-1,-1.5788902E0,-8.119855E-2,1.3090041E-1,1.1813514E0,-2.0336134E0,-8.560059E-1,-1.1184772E0,6.543799E-1,-8.057722E-1,8.002653E-1,6.5132535E-1,1.318E0,-2.1692905E0,-1.6748253E0,-2.2649752E-1,-1.7399862E0,3.921545E-2,-1.6418191E0,1.1580108E0,-1.6717733E-1,-1.6218724E0,1.0856964E-1,7.486551E-2,1.1783599E0,5.763998E-2,1.2531906E0,9.7301954E-1,1.3881973E0,-1.8484267E0,-2.2077346E0,-6.734997E-1,-1.9276271E0,-1.1990316E0,3.2540625E-1,-2.1013842E0,-1.1416118E0,-6.474896E-1,7.0925444E-1,-1.884875E0,-8.687802E-1,6.162284E-1,1.3414714E0,-9.3711805E-1,6.180494E-1,-3.7654078E-1,-2.0106354E0,1.084098E0,-7.234882E-1,6.319973E-1,-1.3109363E0,1.290926E0,5.341631E-1,7.1150565E-1,-1.0564226E0,8.68604E-1,1.4192553E0,2.1992421E-1,1.2343422E0,7.20148E-2,1.2506322E0,-1.0612648E-1,-5.144018E-2,-1.1281023E-1,-1.01901375E-1,-6.912901E-2,3.9107334E-3,-1.07124165E-1,-7.281457E-2,-8.276048E-2,2.4376733E-3,-4.5438487E-2,3.5651352E-2,-1.1187289E-1,-8.225745E-2,-7.578837E-2,-8.228306E-4,-6.406076E-2,-2.9863967E-3,9.65619E-3,5.966652E-2,-7.919904E-2,-1.0521203E-1,1.7391866E-2,-7.17945E-2,-2.1112278E-2,5.710445E-2,5.593778E-2,7.3112555E-2,-7.1286775E-2,1.8247974E-3,-1.3440927E-2,5.5264767E-2,-7.895531E-2,4.2371647E-3,-1.111412E-1,-7.808378E-2,1.4267737E-2,6.3225254E-2,-6.5660395E-2,-3.4700357E-4,-6.950669E-3,5.0414022E-2,-8.98313E-2,-1.28088E-2,4.8928827E-2,6.9518E-2,-1.3381796E-2,4.9324676E-2,-9.050912E-3,5.5772882E-2,-9.2874184E-2,1.2290765E-2,7.054641E-2,6.6248677E-3,7.1458034E-2,1.4939377E-2,4.7907926E-2,-4.4191774E-2,6.344352E-2,-3.0693775E-2,4.1518632E-2,6.93914E-2],"categories":[],"categories_nodes":[],"categories_segments":[],"categories_sizes":[],"default_left":[0,0,0,0,0,0,0,0,0,0,0,0,0,0,0,0,0,0,0,0,0,0,0,0,0,0,0,0,0,0,0,0,0,0,0,0,0,0,0,0,0,0,0,0,0,0,0,0,0,0,0,0,0,0,0,0,0,0,0,0,0,0,0,0,0,0,0,0,0,0,0,0,0,0,0,0,0,0,0,0,0,0,0,0,0,0,0,0,0,0,0,0,0,0,0,0,0,0,0,0,0,0,0,0,0,0,0,0,0,0,0,0,0,0,0,0,0,0,0,0,0,0,0,0,0],"id":3,"left_children":[1,3,5,7,9,11,13,15,17,19,21,23,25,27,29,31,33,35,37,39,41,43,45,47,49,51,53,55,57,59,61,63,65,67,69,71,73,75,77,79,81,83,85,87,89,91,93,95,97,99,101,103,105,107,109,111,113,115,117,119,121,-1,123,-1,-1,-1,-1,-1,-1,-1,-1,-1,-1,-1,-1,-1,-1,-1,-1,-1,-1,-1,-1,-1,-1,-1,-1,-1,-1,-1,-1,-1,-1,-1,-1,-1,-1,-1,-1,-1,-1,-1,-1,-1,-1,-1,-1,-1,-1,-1,-1,-1,-1,-1,-1,-1,-1,-1,-1,-1,-1,-1,-1,-1,-1],"loss_changes":[5.702052E3,1.612096E3,1.1210798E3,6.404131E2,8.691537E2,1.0664302E3,1.8227466E2,5.4708008E1,4.2033942E2,2.8640283E2,2.7599054E2,5.2921014E2,2.7196167E2,1.8582135E2,4.730713E1,6.6047363E0,8.305676E1,2.380325E2,6.557422E1,6.860728E1,5.9520874E1,4.025995E1,1.5426079E2,1.8063806E2,2.7294608E2,2.6405075E2,4.65885E1,1.9229752E2,1.526358E1,6.724411E1,1.0147461E1,2.001886E1,1.7224121E0,3.673226E1,2.3769775E1,9.14418E1,1.36149E2,8.411194E0,5.0723312E1,2.7363245E1,1.8618374E1,1.2955994E1,5.550008E1,5.8595142E1,6.647705E0,6.1299194E1,5.4939728E1,5.0263443E1,2.3708252E1,2.1937561E1,7.67098E1,7.088344E1,4.978775E1,1.5854614E1,3.6055122E1,6.0157913E1,1.02327E2,3.193882E1,1.5576477E0,7.385045E1,1.7018188E1,0E0,2.569043E1,0E0,0E0,0E0,0E0,0E0,0E0,0E0,0E0,0E0,0E0,0E0,0E0,0E0,0E0,0E0,0E0,0E0,0E0,0E0,0E0,0E0,0E0,0E0,0E0,0E0,0E0,0E0,0E0,0E0,0E0,0E0,0E0,0E0,0E0,0E0,0E0,0E0,0E0,0E0,0E0,0E0,0E0,0E0,0E0,0E0,0E0,0E0,0E0,0E0,0E0,0E0,0E0,0E0,0E0,0E0,0E0,0E0,0E0,0E0,0E0,0E0,0E0],"parents":[2147483647,0,0,1,1,2,2,3,3,4,4,5,5,6,6,7,7,8,8,9,9,10,10,11,11,12,12,13,13,14,14,15,15,16,16,17,17,18,18,19,19,20,20,21,21,22,22,23,23,24,24,25,25,26,26,27,27,28,28,29,29,30,30,31,31,32,32,33,33,34,34,35,35,36,36,37,37,38,38,39,39,40,40,41,41,42,42,43,43,44,44,45,45,46,46,47,47,48,48,49,49,50,50,51,51,52,52,53,53,54,54,55,55,56,56,57,57,58,58,59,59,60,60,62,62],"right_children":[2,4,6,8,10,12,14,16,18,20,22,24,26,28,30,32,34,36,38,40,42,44,46,48,50,52,54,56,58,60,62,64,66,68,70,72,74,76,78,80,82,84,86,88,90,92,94,96,98,100,102,104,106,108,110,112,114,116,118,120,122,-1,124,-1,-1,-1,-1,-1,-1,-1,-1,-1,-1,-1,-1,-1,-1,-1,-1,-1,-1,-1,-1,-1,-1,-1,-1,-1,-1,-1,-1,-1,-1,-1,-1,-1,-1,-1,-1,-1,-1,-1,-1,-1,-1,-1,-1,-1,-1,-1,-1,-1,-1,-1,-1,-1,-1,-1,-1,-1,-1,-1,-1,-1,-1],"split_conditions":[4E0,1.26E2,7.9E1,3E0,2E0,2E0,1E0,9E1,7.930724E1,6.5858955E1,8.164832E1,7E0,6E0,7E0,5E0,5.579518E1,6.074668E1,4.5E1,7.9E1,2E0,3E0,1E0,2E0,6.2465332E1,7.454488E1,8.5569595E1,9.279766E1,8.1273575E1,1.16E2,2E0,8.630708E1,2E0,7E1,2E0,2E0,3E0,1E0,3E0,3E0,1E0,1E0,8.069235E1,7.7136856E1,3E0,3E0,4E0,3E0,5E0,6E0,1.5E1,1E0,3E0,4E0,7E0,3E0,1.2E2,1.52E2,7.9713936E1,9.938839E1,8.164832E1,9.9005516E1,7.20148E-2,2E0,-1.0612648E-1,-5.144018E-2,-1.1281023E-1,-1.01901375E-1,-6.912901E-2,3.9107334E-3,-1.07124165E-1,-7.281457E-2,-8.276048E-2,2.4376733E-3,-4.5438487E-2,3.5651352E-2,-1.1187289E-1,-8.225745E-2,-7.578837E-2,-8.228306E-4,-6.406076E-2,-2.9863967E-3,9.65619E-3,5.966652E-2,-7.919904E-2,-1.0521203E-1,1.7391866E-2,-7.17945E-2,-2.1112278E-2,5.710445E-2,5.593778E-2,7.3112555E-2,-7.1286775E-2,1.8247974E-3,-1.3440927E-2,5.5264767E-2,-7.895531E-2,4.2371647E-3,-1.111412E-1,-7.808378E-2,1.4267737E-2,6.3225254E-2,-6.5660395E-2,-3.4700357E-4,-6.950669E-3,5.0414022E-2,-8.98313E-2,-1.28088E-2,4.8928827E-2,6.9518E-2,-1.3381796E-2,4.9324676E-2,-9.050912E-3,5.5772882E-2,-9.2874184E-2,1.2290765E-2,7.054641E-2,6.6248677E-3,7.1458034E-2,1.4939377E-2,4.7907926E-2,-4.4191774E-2,6.344352E-2,-3.0693775E-2,4.1518632E-2,6.93914E-2],"split_indices":[5,4,4,2,2,2,2,4,0,0,0,5,5,5,5,0,0,4,4,5,5,5,5,0,0,0,0,0,4,2,0,2,4,5,2,5,5,5,5,2,2,0,0,2,2,2,2,5,5,4,2,2,2,5,2,4,4,0,0,0,0,0,2,0,0,0,0,0,0,0,0,0,0,0,0,0,0,0,0,0,0,0,0,0,0,0,0,0,0,0,0,0,0,0,0,0,0,0,0,0,0,0,0,0,0,0,0,0,0,0,0,0,0,0,0,0,0,0,0,0,0,0,0,0,0],"split_type":[0,0,0,0,0,0,0,0,0,0,0,0,0,0,0,0,0,0,0,0,0,0,0,0,0,0,0,0,0,0,0,0,0,0,0,0,0,0,0,0,0,0,0,0,0,0,0,0,0,0,0,0,0,0,0,0,0,0,0,0,0,0,0,0,0,0,0,0,0,0,0,0,0,0,0,0,0,0,0,0,0,0,0,0,0,0,0,0,0,0,0,0,0,0,0,0,0,0,0,0,0,0,0,0,0,0,0,0,0,0,0,0,0,0,0,0,0,0,0,0,0,0,0,0,0],"sum_hessian":[7.316102E3,3.0897122E3,4.22639E3,1.9525446E3,1.1371676E3,1.6988827E3,2.5275073E3,1.1974729E3,7.550717E2,4.7160776E2,6.655599E2,7.07976E2,9.909067E2,5.19246E2,2.0082614E3,8.652346E2,3.3223825E2,4.4174695E2,3.133248E2,1.4710954E2,3.244982E2,4.123634E2,2.531965E2,3.7367593E2,3.343001E2,3.3992868E2,6.50978E2,2.6195093E2,2.57295E2,3.4206525E2,1.666196E3,9.782684E1,7.674078E2,6.770983E1,2.645284E2,1.5950449E2,2.8224246E2,1.9377776E2,1.19547035E2,7.2667854E1,7.444169E1,2.4578206E2,7.871615E1,1.0541585E2,3.0694754E2,1.27744934E2,1.2545157E2,8.936855E1,2.843074E2,1.537437E2,1.805564E2,2.4284288E2,9.70858E1,5.532924E2,9.7685585E1,1.6529646E2,9.6654465E1,7.9473656E1,1.7782137E2,8.85933E1,2.5347192E2,1.2016412E3,4.6455484E2,7.211883E1,2.5708014E1,5.8735803E2,1.8004976E2,3.441112E1,3.329871E1,1.7926558E2,8.526285E1,1.1656349E2,4.2940994E1,6.713659E1,2.1510587E2,1.4625307E2,4.752469E1,8.945334E1,3.0093697E1,3.439899E1,3.8268864E1,3.6705048E1,3.773664E1,1.0709929E2,1.3868277E2,2.514957E1,5.3566578E1,3.5502415E1,6.991344E1,1.11537254E2,1.954103E2,8.474865E1,4.299629E1,4.4642735E1,8.080884E1,2.4104628E1,6.526392E1,1.9037897E2,9.392843E1,2.8802732E1,1.2494096E2,9.858675E1,8.196965E1,7.985308E1,1.629898E2,6.599396E1,3.109184E1,1.3622226E2,4.170702E2,3.5379807E1,6.2305775E1,5.1674522E1,1.1362193E2,5.957872E1,3.707574E1,4.523222E1,3.4241436E1,1.7599004E2,1.8313384E0,5.3165928E1,3.5427376E1,2.4913116E2,4.3407664E0,1.1606769E2,3.4848718E2],"tree_param":{"num_deleted":"0","num_feature":"19","num_nodes":"125","size_leaf_vector":"1"}},{"base_weights":[3.7319944E-3,-9.7554207E-1,7.358719E-1,-1.5947467E0,-2.029132E-1,1.1234886E-1,1.1417738E0,-1.8255757E0,-5.882935E-1,-1.1552211E0,5.0175464E-1,-7.562468E-1,7.616804E-1,8.170211E-1,1.3673563E0,-1.3416873E0,-1.9802196E0,2.4849981E-1,-1.437279E0,7.852212E-2,-1.5464226E0,1.0037006E0,-2.861196E-1,-1.5128214E0,1.11118354E-1,2.622774E-2,1.147146E0,1.0638725E-1,1.1943508E0,1.391908E0,1.0963745E0,-1.9264553E0,-6.4752567E-1,-1.0569515E-1,-1.769025E0,6.930902E-1,-7.4136424E-1,-3.08586E-1,-1.76068E0,6.201188E-1,-1.1597865E0,-1.7908051E0,-7.404091E-1,1.2310656E0,3.596403E-1,4.142815E-1,-1.2222795E0,-4.3912226E-1,-1.8965917E0,8.5840833E-1,-9.2141205E-1,7.589406E-1,-9.466917E-1,1.2360132E0,4.0955025E-1,-6.5241873E-1,8.777635E-1,1.3472048E0,7.7785945E-1,1.2738905E0,7.0761345E-2,2.2159435E-1,1.2443982E0,-1.0614609E-1,-7.583595E-2,-5.6289315E-2,3.2265287E-2,-9.8924555E-2,-5.778883E-2,-1.6877249E-2,5.1732283E-2,-8.6779915E-2,1.8547554E-2,-6.2059797E-2,4.082949E-2,-1.0351654E-1,-6.246968E-2,-3.0896312E-2,5.087426E-2,-8.950966E-2,-7.1162097E-3,-7.009165E-2,-1.00900725E-1,4.9731405E-3,-7.356926E-2,3.9406627E-2,6.910031E-2,-3.285761E-2,4.4085957E-2,-1.74923E-2,5.8868375E-2,-8.507253E-2,-1.274054E-2,4.1621536E-2,-7.075105E-2,-6.103158E-2,-1.047969E-1,5.765595E-2,-6.9208676E-3,5.4425984E-3,-8.970264E-2,5.857699E-2,-1.2279753E-2,2.652054E-2,-6.8916254E-2,6.427592E-2,2.0473124E-2,4.958721E-2,-2.1996029E-2,3.6129706E-2,-6.509901E-2,5.508406E-2,-3.3220906E-2,7.023097E-2,5.0228793E-2,6.535154E-2,8.829327E-3,3.5399135E-2,6.7501E-2,4.647267E-2,-5.4023366E-2,6.752503E-2,3.753346E-2],"categories":[],"categories_nodes":[],"categories_segments":[],"categories_sizes":[],"default_left":[0,0,0,0,0,0,0,0,0,0,0,0,0,0,0,0,0,0,0,0,0,0,0,0,0,0,0,0,0,0,0,0,0,0,0,0,0,0,0,0,0,0,0,0,0,0,0,0,0,0,0,0,0,0,0,0,0,0,0,0,0,0,0,0,0,0,0,0,0,0,0,0,0,0,0,0,0,0,0,0,0,0,0,0,0,0,0,0,0,0,0,0,0,0,0,0,0,0,0,0,0,0,0,0,0,0,0,0,0,0,0,0,0,0,0,0,0,0,0,0,0,0,0],"id":4,"left_children":[1,3,5,7,9,11,13,15,17,19,21,23,25,27,29,31,33,35,37,39,41,43,45,47,49,51,53,55,57,59,61,63,65,-1,67,69,71,73,75,77,79,81,83,85,87,89,91,93,95,97,99,101,103,105,107,109,111,113,115,117,-1,119,121,-1,-1,-1,-1,-1,-1,-1,-1,-1,-1,-1,-1,-1,-1,-1,-1,-1,-1,-1,-1,-1,-1,-1,-1,-1,-1,-1,-1,-1,-1,-1,-1,-1,-1,-1,-1,-1,-1,-1,-1,-1,-1,-1,-1,-1,-1,-1,-1,-1,-1,-1,-1,-1,-1,-1,-1,-1,-1,-1,-1],"loss_changes":[5.209124E3,1.4866758E3,1.0520486E3,3.997339E2,9.2927673E2,9.2574176E2,1.8334717E2,1.0232373E2,2.3006656E2,2.8432483E2,3.151112E2,4.6097095E2,2.6620972E2,2.7729663E2,8.3498535E0,1.3793048E2,2.6217285E1,7.255215E1,5.809665E1,9.643341E1,8.674841E1,7.079834E1,2.0414874E2,1.5373755E2,2.5393639E2,2.3167432E2,3.988214E1,2.1124475E2,4.1967896E1,1.932373E0,1.6302124E1,1.1720154E1,9.8590416E1,0E0,5.133252E1,4.0294514E1,5.7285263E1,3.9830162E1,1.714917E1,4.9795517E1,2.7822819E1,2.7431763E1,6.50591E1,2.2922363E1,6.871102E1,1.0443991E2,6.1302643E1,1.2536258E2,3.4638977E1,5.622563E1,1.2447295E2,7.711331E1,8.9749245E1,2.1954895E1,3.3942486E1,1.6350723E2,6.2513382E1,8.2855835E0,5.8240456E1,9.12381E0,0E0,1.9202765E1,4.710968E0,0E0,0E0,0E0,0E0,0E0,0E0,0E0,0E0,0E0,0E0,0E0,0E0,0E0,0E0,0E0,0E0,0E0,0E0,0E0,0E0,0E0,0E0,0E0,0E0,0E0,0E0,0E0,0E0,0E0,0E0,0E0,0E0,0E0,0E0,0E0,0E0,0E0,0E0,0E0,0E0,0E0,0E0,0E0,0E0,0E0,0E0,0E0,0E0,0E0,0E0,0E0,0E0,0E0,0E0,0E0,0E0,0E0,0E0,0E0,0E0],"parents":[2147483647,0,0,1,1,2,2,3,3,4,4,5,5,6,6,7,7,8,8,9,9,10,10,11,11,12,12,13,13,14,14,15,15,16,16,17,17,18,18,19,19,20,20,21,21,22,22,23,23,24,24,25,25,26,26,27,27,28,28,29,29,30,30,31,31,32,32,34,34,35,35,36,36,37,37,38,38,39,39,40,40,41,41,42,42,43,43,44,44,45,45,46,46,47,47,48,48,49,49,50,50,51,51,52,52,53,53,54,54,55,55,56,56,57,57,58,58,59,59,61,61,62,62],"right_children":[2,4,6,8,10,12,14,16,18,20,22,24,26,28,30,32,34,36,38,40,42,44,46,48,50,52,54,56,58,60,62,64,66,-1,68,70,72,74,76,78,80,82,84,86,88,90,92,94,96,98,100,102,104,106,108,110,112,114,116,118,-1,120,122,-1,-1,-1,-1,-1,-1,-1,-1,-1,-1,-1,-1,-1,-1,-1,-1,-1,-1,-1,-1,-1,-1,-1,-1,-1,-1,-1,-1,-1,-1,-1,-1,-1,-1,-1,-1,-1,-1,-1,-1,-1,-1,-1,-1,-1,-1,-1,-1,-1,-1,-1,-1,-1,-1,-1,-1,-1,-1,-1,-1],"split_conditions":[4E0,1.1E2,7.8E1,4E0,2E0,2E0,2E0,6.229271E1,7.496013E1,6.2465332E1,8.146096E1,7E0,6E0,6E0,9.5700935E1,2E0,6.7E1,8.134569E1,5.4739178E1,7.806258E1,3E0,8.4166405E1,7.600009E1,6.3495136E1,8.008215E1,7.871555E1,9.480361E1,1.4E2,8.687932E1,5E0,5E0,7.5E1,3E0,-1.0569515E-1,3E0,1E0,5.5E1,2E0,6.4E1,1E0,1.71E2,6.3700645E1,8.0506294E1,1E0,3E0,2E0,4E0,6.609377E1,5.4952732E1,8.524215E1,6.8895226E1,8.392707E1,5.355729E1,9.6667984E1,7.781767E1,6.838523E1,9.3811134E1,9.033697E1,7.173597E1,9.3E1,7.0761345E-2,8.111962E1,9.199378E1,-1.0614609E-1,-7.583595E-2,-5.6289315E-2,3.2265287E-2,-9.8924555E-2,-5.778883E-2,-1.6877249E-2,5.1732283E-2,-8.6779915E-2,1.8547554E-2,-6.2059797E-2,4.082949E-2,-1.0351654E-1,-6.246968E-2,-3.0896312E-2,5.087426E-2,-8.950966E-2,-7.1162097E-3,-7.009165E-2,-1.00900725E-1,4.9731405E-3,-7.356926E-2,3.9406627E-2,6.910031E-2,-3.285761E-2,4.4085957E-2,-1.74923E-2,5.8868375E-2,-8.507253E-2,-1.274054E-2,4.1621536E-2,-7.075105E-2,-6.103158E-2,-1.047969E-1,5.765595E-2,-6.9208676E-3,5.4425984E-3,-8.970264E-2,5.857699E-2,-1.2279753E-2,2.652054E-2,-6.8916254E-2,6.427592E-2,2.0473124E-2,4.958721E-2,-2.1996029E-2,3.6129706E-2,-6.509901E-2,5.508406E-2,-3.3220906E-2,7.023097E-2,5.0228793E-2,6.535154E-2,8.829327E-3,3.5399135E-2,6.7501E-2,4.647267E-2,-5.4023366E-2,6.752503E-2,3.753346E-2],"split_indices":[5,4,4,2,2,2,2,0,0,0,0,5,5,5,0,2,4,1,1,1,5,1,1,0,0,0,0,4,0,5,5,4,5,0,2,5,4,5,4,5,4,1,0,5,2,5,2,1,1,1,1,1,1,1,1,0,0,1,1,4,0,1,1,0,0,0,0,0,0,0,0,0,0,0,0,0,0,0,0,0,0,0,0,0,0,0,0,0,0,0,0,0,0,0,0,0,0,0,0,0,0,0,0,0,0,0,0,0,0,0,0,0,0,0,0,0,0,0,0,0,0,0,0],"split_type":[0,0,0,0,0,0,0,0,0,0,0,0,0,0,0,0,0,0,0,0,0,0,0,0,0,0,0,0,0,0,0,0,0,0,0,0,0,0,0,0,0,0,0,0,0,0,0,0,0,0,0,0,0,0,0,0,0,0,0,0,0,0,0,0,0,0,0,0,0,0,0,0,0,0,0,0,0,0,0,0,0,0,0,0,0,0,0,0,0,0,0,0,0,0,0,0,0,0,0,0,0,0,0,0,0,0,0,0,0,0,0,0,0,0,0,0,0,0,0,0,0,0,0],"sum_hessian":[7.2635127E3,3.1071758E3,4.156337E3,1.724252E3,1.382924E3,1.6393457E3,2.5169915E3,1.4019113E3,3.2234067E2,5.8784894E2,7.95075E2,7.012009E2,9.381448E2,1.0336099E3,1.4833815E3,3.4186743E2,1.0600438E3,1.6269218E2,1.5964848E2,1.4171562E2,4.4613333E2,4.8549658E2,3.0957843E2,3.7412213E2,3.270788E2,3.2298004E2,6.1516473E2,3.5892328E2,6.746866E2,1.3563555E3,1.27026E2,1.8459106E2,1.5727638E2,6.4362726E2,4.1641656E2,1.1247476E2,5.0217426E1,3.59911E1,1.2365738E2,9.894114E1,4.277448E1,3.4139954E2,1.04733795E2,3.581512E2,1.27345345E2,1.7740665E2,1.3217178E2,9.907573E1,2.7504642E2,1.8984663E2,1.3723215E2,1.8435834E2,1.386217E2,5.484148E2,6.674996E1,1.8101364E2,1.7790965E2,4.9191663E2,1.8276997E2,2.3296106E2,1.1233944E3,1.8745026E1,1.08280975E2,1.2194019E2,6.2650867E1,1.1490024E2,4.2376152E1,3.0873596E2,1.07680595E2,2.79993E1,8.4475464E1,2.6220287E1,2.3997139E1,1.9623178E1,1.6367924E1,7.511571E1,4.854167E1,2.3905495E1,7.5035645E1,2.5941801E1,1.683268E1,1.2853062E2,2.128689E2,4.9138687E1,5.5595108E1,9.2609985E1,2.6554123E2,4.3115517E1,8.422983E1,8.8913414E1,8.8493225E1,8.78851E1,4.4286682E1,4.308495E1,5.599078E1,6.426262E1,2.1078378E2,1.4640524E2,4.3441387E1,6.3333782E1,7.389836E1,1.3056451E2,5.3793827E1,3.1295574E1,1.07326126E2,5.169004E2,3.1514395E1,3.9506367E1,2.7243595E1,5.8040077E1,1.22973564E2,1.5560251E2,2.2307138E1,4.1866168E2,7.325495E1,9.6589355E1,8.618062E1,2.884463E1,2.0411642E2,1.2328739E1,6.416287E0,8.769914E1,2.0581833E1],"tree_param":{"num_deleted":"0","num_feature":"19","num_nodes":"123","size_leaf_vector":"1"}},{"base_weights":[5.8069006E-3,-9.199685E-1,7.092123E-1,-1.4398712E0,-8.4991135E-2,-2.7668443E-2,1.0434855E0,-1.6735635E0,-4.0881076E-1,-9.979233E-1,5.875343E-1,-8.985888E-1,6.2564623E-1,6.669602E-1,1.3110301E0,-1.8249968E0,-1.198729E0,-9.687286E-1,2.6419473E-1,-1.2871859E0,-1.4052556E-1,-1.9723131E-1,8.541971E-1,-1.4362596E0,2.9300067E-1,9.148151E-2,1.1991376E0,-3.9511833E-2,1.0424575E0,1.0807419E0,1.3578259E0,-9.8692566E-2,-1.5798534E0,-1.5023657E0,-3.066412E-1,-1.5440181E0,-3.8833126E-1,-5.804432E-1,5.8053327E-1,-1.613965E0,-9.543755E-1,-6.9287056E-1,3.6985263E-1,-9.939095E-1,2.1228477E-1,3.207372E-1,1.15209E0,-1.8272313E0,-9.931681E-1,-1.6605362E-1,7.8057355E-1,-7.905729E-1,5.53123E-1,9.5961964E-1,1.3224081E0,-9.917609E-1,6.033436E-1,5.221117E-1,1.2681779E0,6.7393166E-1,1.3119438E0,1.2905968E0,6.951543E-2,-8.8268645E-2,-5.024187E-2,-9.351225E-2,-5.5536028E-2,-7.2401874E-2,3.8090718E-3,-8.939273E-2,-6.1415266E-2,-4.8562195E-2,3.6249997E-3,-4.5524143E-2,-1.0211625E-3,1.9550283E-2,5.0798196E-2,-9.234202E-2,-6.672983E-2,-6.3627355E-2,-2.2314375E-2,-5.1468875E-2,-7.7312826E-3,-2.6190711E-2,2.8020171E-2,-7.554407E-2,-1.3377723E-2,-5.0144177E-3,4.307474E-2,-3.8826172E-3,4.8689198E-2,4.4818416E-2,6.367075E-2,-1.0059277E-1,-8.191685E-2,-8.09272E-2,-2.6255587E-2,-3.5209674E-2,2.3537366E-2,1.2213756E-2,4.9048398E-2,-7.0170075E-2,-1.5744215E-2,1.1338258E-2,4.9454562E-2,2.6358778E-2,6.0482938E-2,2.1089777E-2,6.6514455E-2,-6.6703975E-2,-3.0664936E-2,1.1441084E-3,4.8356857E-2,1.4264894E-3,5.2389868E-2,5.258396E-2,6.782758E-2,-6.6166096E-3,5.2933585E-2,5.6974716E-2,6.99185E-2,5.6486685E-2,6.962269E-2],"categories":[],"categories_nodes":[],"categories_segments":[],"categories_sizes":[],"default_left":[0,0,0,0,0,0,0,0,0,0,0,0,0,0,0,0,0,0,0,0,0,0,0,0,0,0,0,0,0,0,0,0,0,0,0,0,0,0,0,0,0,0,0,0,0,0,0,0,0,0,0,0,0,0,0,0,0,0,0,0,0,0,0,0,0,0,0,0,0,0,0,0,0,0,0,0,0,0,0,0,0,0,0,0,0,0,0,0,0,0,0,0,0,0,0,0,0,0,0,0,0,0,0,0,0,0,0,0,0,0,0,0,0,0,0,0,0,0,0,0,0,0,0],"id":5,"left_children":[1,3,5,7,9,11,13,15,17,19,21,23,25,27,29,31,33,35,37,39,41,43,45,47,49,51,53,55,57,59,61,-1,63,65,67,69,71,73,75,77,79,81,83,85,87,89,91,93,95,97,99,101,103,105,107,109,111,113,115,117,119,121,-1,-1,-1,-1,-1,-1,-1,-1,-1,-1,-1,-1,-1,-1,-1,-1,-1,-1,-1,-1,-1,-1,-1,-1,-1,-1,-1,-1,-1,-1,-1,-1,-1,-1,-1,-1,-1,-1,-1,-1,-1,-1,-1,-1,-1,-1,-1,-1,-1,-1,-1,-1,-1,-1,-1,-1,-1,-1,-1,-1,-1],"loss_changes":[4.693541E3,1.3507769E3,1.0088728E3,4.6139282E2,7.343919E2,7.2835315E2,2.8295972E2,1.1020508E2,1.3428104E2,1.256478E2,1.443193E2,3.5193628E2,2.2396075E2,3.110655E2,1.6272217E1,4.005664E1,1.0270465E2,6.429622E1,4.3704193E1,3.970392E1,3.6652596E1,5.747294E1,8.136307E1,6.370935E1,3.849772E1,1.5508531E2,9.143311E0,2.5027353E2,8.925781E1,2.5724854E1,1.1848145E0,0E0,4.6446533E1,3.88255E1,4.2919247E1,5.292282E0,2.6418718E1,8.247872E0,9.388924E0,9.890137E0,3.020102E1,1.1134415E1,1.1831561E1,2.2037807E1,2.3777803E1,4.8383034E1,9.085785E0,3.6698608E0,5.168898E1,3.0871098E1,8.713192E0,3.7715385E1,3.5331566E1,1.271315E1,1.0726318E0,2.0526352E1,5.152549E1,6.0510807E1,8.776001E0,3.257983E1,1.0793457E0,5.9370117E0,0E0,0E0,0E0,0E0,0E0,0E0,0E0,0E0,0E0,0E0,0E0,0E0,0E0,0E0,0E0,0E0,0E0,0E0,0E0,0E0,0E0,0E0,0E0,0E0,0E0,0E0,0E0,0E0,0E0,0E0,0E0,0E0,0E0,0E0,0E0,0E0,0E0,0E0,0E0,0E0,0E0,0E0,0E0,0E0,0E0,0E0,0E0,0E0,0E0,0E0,0E0,0E0,0E0,0E0,0E0,0E0,0E0,0E0,0E0,0E0,0E0],"parents":[2147483647,0,0,1,1,2,2,3,3,4,4,5,5,6,6,7,7,8,8,9,9,10,10,11,11,12,12,13,13,14,14,15,15,16,16,17,17,18,18,19,19,20,20,21,21,22,22,23,23,24,24,25,25,26,26,27,27,28,28,29,29,30,30,32,32,33,33,34,34,35,35,36,36,37,37,38,38,39,39,40,40,41,41,42,42,43,43,44,44,45,45,46,46,47,47,48,48,49,49,50,50,51,51,52,52,53,53,54,54,55,55,56,56,57,57,58,58,59,59,60,60,61,61],"right_children":[2,4,6,8,10,12,14,16,18,20,22,24,26,28,30,32,34,36,38,40,42,44,46,48,50,52,54,56,58,60,62,-1,64,66,68,70,72,74,76,78,80,82,84,86,88,90,92,94,96,98,100,102,104,106,108,110,112,114,116,118,120,122,-1,-1,-1,-1,-1,-1,-1,-1,-1,-1,-1,-1,-1,-1,-1,-1,-1,-1,-1,-1,-1,-1,-1,-1,-1,-1,-1,-1,-1,-1,-1,-1,-1,-1,-1,-1,-1,-1,-1,-1,-1,-1,-1,-1,-1,-1,-1,-1,-1,-1,-1,-1,-1,-1,-1,-1,-1,-1,-1,-1,-1],"split_conditions":[4E0,1.22E2,6.1E1,4E0,2E0,2E0,2E0,3E0,6.4E1,3E0,1E0,8E0,7E0,6E0,5E0,7.5E1,3E0,2E0,1E0,1E0,1E0,3E0,3E0,6E0,1E0,3E0,3E0,1.16E2,1.02E2,1.12E2,3E0,-9.8692566E-2,3E0,6.1E1,3.3E1,3.7E1,2.6E1,1E2,3E0,1.63E2,1.7E2,1.67E2,1.36E2,1.69E2,1.73E2,1.71E2,2E0,1E0,2.7E1,3.3E1,1.8E1,2.6E1,3.5E1,2.2E1,1E0,1E0,1.49E2,8E0,1.31E2,3E0,3E0,7E0,6.951543E-2,-8.8268645E-2,-5.024187E-2,-9.351225E-2,-5.5536028E-2,-7.2401874E-2,3.8090718E-3,-8.939273E-2,-6.1415266E-2,-4.8562195E-2,3.6249997E-3,-4.5524143E-2,-1.0211625E-3,1.9550283E-2,5.0798196E-2,-9.234202E-2,-6.672983E-2,-6.3627355E-2,-2.2314375E-2,-5.1468875E-2,-7.7312826E-3,-2.6190711E-2,2.8020171E-2,-7.554407E-2,-1.3377723E-2,-5.0144177E-3,4.307474E-2,-3.8826172E-3,4.8689198E-2,4.4818416E-2,6.367075E-2,-1.0059277E-1,-8.191685E-2,-8.09272E-2,-2.6255587E-2,-3.5209674E-2,2.3537366E-2,1.2213756E-2,4.9048398E-2,-7.0170075E-2,-1.5744215E-2,1.1338258E-2,4.9454562E-2,2.6358778E-2,6.0482938E-2,2.1089777E-2,6.6514455E-2,-6.6703975E-2,-3.0664936E-2,1.1441084E-3,4.8356857E-2,1.4264894E-3,5.2389868E-2,5.258396E-2,6.782758E-2,-6.6166096E-3,5.2933585E-2,5.6974716E-2,6.99185E-2,5.6486685E-2,6.962269E-2],"split_indices":[5,4,4,2,2,2,2,2,4,5,5,5,5,5,5,4,5,5,5,2,2,2,2,5,2,2,2,4,4,4,2,0,5,4,4,4,4,4,5,4,4,4,4,4,4,4,5,2,4,4,4,4,4,4,4,2,4,5,4,2,2,5,0,0,0,0,0,0,0,0,0,0,0,0,0,0,0,0,0,0,0,0,0,0,0,0,0,0,0,0,0,0,0,0,0,0,0,0,0,0,0,0,0,0,0,0,0,0,0,0,0,0,0,0,0,0,0,0,0,0,0,0,0],"split_type":[0,0,0,0,0,0,0,0,0,0,0,0,0,0,0,0,0,0,0,0,0,0,0,0,0,0,0,0,0,0,0,0,0,0,0,0,0,0,0,0,0,0,0,0,0,0,0,0,0,0,0,0,0,0,0,0,0,0,0,0,0,0,0,0,0,0,0,0,0,0,0,0,0,0,0,0,0,0,0,0,0,0,0,0,0,0,0,0,0,0,0,0,0,0,0,0,0,0,0,0,0,0,0,0,0,0,0,0,0,0,0,0,0,0,0,0,0,0,0,0,0,0,0],"sum_hessian":[7.205576E3,3.1109038E3,4.0946724E3,1.9167225E3,1.1941812E3,1.2781039E3,2.8165686E3,1.5620558E3,3.5466672E2,5.0634708E2,6.878341E2,5.476575E2,7.3044635E2,1.1714448E3,1.6451238E3,1.1821903E3,3.7986557E2,1.9335907E2,1.6130763E2,3.7823846E2,1.281086E2,1.745142E2,5.133199E2,3.772354E2,1.7042209E2,3.7879056E2,3.516558E2,4.068603E2,7.645845E2,2.8190817E2,1.3632156E3,7.31165E2,4.510253E2,2.8289392E2,9.6971634E1,9.6273026E1,9.708605E1,4.3725018E1,1.1758261E2,1.8890617E2,1.893323E2,6.1353077E1,6.6755516E1,5.876498E1,1.1574922E2,1.8467848E2,3.2864142E2,1.9874474E2,1.7849066E2,8.8117805E1,8.230428E1,1.2989287E2,2.4889769E2,1.2247267E2,2.2918312E2,1.6375317E2,2.431071E2,2.3232545E2,5.3225903E2,1.0357615E2,1.7833203E2,4.573587E2,9.058569E2,3.3944037E2,1.1158496E2,1.4392615E2,1.3896779E2,2.3656525E1,7.331511E1,5.168891E1,4.458411E1,4.2376175E1,5.4709877E1,2.7117758E1,1.660726E1,8.324637E1,3.4336243E1,9.9966E1,8.894017E1,1.15500046E2,7.383226E1,3.7189808E1,2.4163273E1,1.1424876E1,5.533064E1,3.3699677E1,2.5065304E1,7.8702225E1,3.7046997E1,1.1525099E2,6.942749E1,1.08448395E2,2.2019302E2,9.562796E1,1.0311678E2,7.535282E1,1.0313785E2,4.7701218E1,4.0416588E1,2.2991924E1,5.931236E1,5.5911697E1,7.398118E1,1.4321196E2,1.0568573E2,4.6008713E1,7.646396E1,2.461051E0,2.2672208E2,8.4656494E1,7.909668E1,9.407149E1,1.4903561E2,1.2036523E2,1.1196023E2,1.5802597E2,3.7423306E2,3.3671005E1,6.9905136E1,6.427207E1,1.1405996E2,1.8200647E2,2.7535223E2],"tree_param":{"num_deleted":"0","num_feature":"19","num_nodes":"123","size_leaf_vector":"1"}},{"base_weights":[4.7663464E-3,-7.189608E-1,8.333204E-1,-1.288387E0,1.9808523E-2,1.6891944E-1,1.1292709E0,-1.6947645E0,-6.4035803E-1,-8.116796E-1,6.221717E-1,-6.713547E-1,8.1803626E-1,6.346361E-1,1.2634628E0,-1.3751155E0,-1.8445157E0,-1.1325959E0,1.516129E-1,-1.2794735E0,-5.3808767E-2,4.115483E-2,1.0264966E0,-1.1812589E0,2.1202372E-1,3.229089E-1,1.1799874E0,2.129178E-2,1.0687777E0,1.0900337E0,1.3416201E0,-1.7244877E0,-8.214463E-1,-9.6641734E-2,-1.7069538E0,-4.7379136E-1,-1.5837594E0,9.330632E-1,-3.8190076E-1,-8.264886E-1,-1.7109672E0,6.641765E-1,-6.9106454E-1,5.922545E-1,-7.540318E-1,1.2261955E0,4.9220526E-1,-3.8544053E-1,-1.7488571E0,7.8097254E-1,-5.2759314E-1,8.309427E-1,-4.0910384E-1,1.2732359E0,6.25116E-1,6.842676E-1,-7.8459764E-1,7.2909796E-1,1.3108066E0,6.232937E-1,1.2584864E0,1.252117E0,6.840299E-2,-9.4162695E-2,-6.933601E-2,-7.222584E-2,-3.3390254E-3,-9.412545E-2,-6.670233E-2,-6.5297805E-2,-1.1018352E-3,-9.399427E-2,-5.527487E-2,9.793091E-3,5.7887085E-2,-5.5048853E-2,9.531937E-3,-6.055494E-2,-1.2619334E-2,-9.223792E-2,-6.804944E-2,9.41495E-3,6.452692E-2,-5.901849E-2,-1.0681832E-3,-7.0082285E-3,4.9969938E-2,-7.7654205E-2,-1.6014745E-2,5.0170124E-2,6.7332916E-2,-1.4201842E-2,4.490147E-2,-5.5600446E-2,2.3963305E-5,-9.491641E-2,-6.0317636E-2,1.8366648E-2,5.9817534E-2,-5.61708E-2,3.293198E-3,9.337252E-3,5.8979493E-2,-4.7059156E-2,3.3211987E-2,5.47956E-2,6.785532E-2,-9.888377E-3,6.004415E-2,-3.3545948E-3,5.943496E-2,-6.765408E-2,8.388837E-3,6.1326277E-2,1.0461508E-2,6.6077754E-2,3.9561964E-3,5.8345176E-2,-2.0382241E-3,5.4571386E-2,6.8267174E-2,5.3924847E-2,6.811166E-2],"categories":[],"categories_nodes":[],"categories_segments":[],"categories_sizes":[],"default_left":[0,0,0,0,0,0,0,0,0,0,0,0,0,0,0,0,0,0,0,0,0,0,0,0,0,0,0,0,0,0,0,0,0,0,0,0,0,0,0,0,0,0,0,0,0,0,0,0,0,0,0,0,0,0,0,0,0,0,0,0,0,0,0,0,0,0,0,0,0,0,0,0,0,0,0,0,0,0,0,0,0,0,0,0,0,0,0,0,0,0,0,0,0,0,0,0,0,0,0,0,0,0,0,0,0,0,0,0,0,0,0,0,0,0,0,0,0,0,0,0,0,0,0],"id":6,"left_children":[1,3,5,7,9,11,13,15,17,19,21,23,25,27,29,31,33,35,37,39,41,43,45,47,49,51,53,55,57,59,61,63,65,-1,67,69,71,73,75,77,79,81,83,85,87,89,91,93,95,97,99,101,103,105,107,109,111,113,115,117,119,121,-1,-1,-1,-1,-1,-1,-1,-1,-1,-1,-1,-1,-1,-1,-1,-1,-1,-1,-1,-1,-1,-1,-1,-1,-1,-1,-1,-1,-1,-1,-1,-1,-1,-1,-1,-1,-1,-1,-1,-1,-1,-1,-1,-1,-1,-1,-1,-1,-1,-1,-1,-1,-1,-1,-1,-1,-1,-1,-1,-1,-1],"loss_changes":[4.252909E3,1.5925552E3,6.5000464E2,5.6190967E2,8.263147E2,5.570018E2,1.510332E2,6.0328857E1,3.2200635E2,2.4565176E2,2.2470465E2,2.0077614E2,1.0284842E2,1.3049695E2,2.2913818E1,8.038959E1,7.5305176E0,1.5061041E2,1.3265138E2,8.234442E1,1.2196968E2,1.7293834E2,5.9582825E1,1.2689087E2,6.9327736E1,9.131624E1,1.6401947E1,1.096237E2,2.2638336E1,4.3559387E1,1.2102051E0,1.1244507E1,7.773568E1,0E0,2.0865967E1,7.832173E1,4.066803E1,2.114569E1,7.8138275E1,4.6281647E1,7.721863E0,3.7131264E1,4.6240044E1,6.963509E1,5.549733E1,9.65094E0,4.9127796E1,3.3325897E1,1.105365E1,1.5534134E1,2.5463081E1,3.2287994E1,5.824617E1,2.7304688E0,2.3825775E1,4.273857E1,5.0372368E1,3.1204155E1,2.0973816E0,5.4756783E1,5.890442E0,4.142212E0,0E0,0E0,0E0,0E0,0E0,0E0,0E0,0E0,0E0,0E0,0E0,0E0,0E0,0E0,0E0,0E0,0E0,0E0,0E0,0E0,0E0,0E0,0E0,0E0,0E0,0E0,0E0,0E0,0E0,0E0,0E0,0E0,0E0,0E0,0E0,0E0,0E0,0E0,0E0,0E0,0E0,0E0,0E0,0E0,0E0,0E0,0E0,0E0,0E0,0E0,0E0,0E0,0E0,0E0,0E0,0E0,0E0,0E0,0E0,0E0,0E0],"parents":[2147483647,0,0,1,1,2,2,3,3,4,4,5,5,6,6,7,7,8,8,9,9,10,10,11,11,12,12,13,13,14,14,15,15,16,16,17,17,18,18,19,19,20,20,21,21,22,22,23,23,24,24,25,25,26,26,27,27,28,28,29,29,30,30,31,31,32,32,34,34,35,35,36,36,37,37,38,38,39,39,40,40,41,41,42,42,43,43,44,44,45,45,46,46,47,47,48,48,49,49,50,50,51,51,52,52,53,53,54,54,55,55,56,56,57,57,58,58,59,59,60,60,61,61],"right_children":[2,4,6,8,10,12,14,16,18,20,22,24,26,28,30,32,34,36,38,40,42,44,46,48,50,52,54,56,58,60,62,64,66,-1,68,70,72,74,76,78,80,82,84,86,88,90,92,94,96,98,100,102,104,106,108,110,112,114,116,118,120,122,-1,-1,-1,-1,-1,-1,-1,-1,-1,-1,-1,-1,-1,-1,-1,-1,-1,-1,-1,-1,-1,-1,-1,-1,-1,-1,-1,-1,-1,-1,-1,-1,-1,-1,-1,-1,-1,-1,-1,-1,-1,-1,-1,-1,-1,-1,-1,-1,-1,-1,-1,-1,-1,-1,-1,-1,-1,-1,-1,-1,-1],"split_conditions":[5E0,1.1E2,5.9E1,3E0,2E0,2E0,1E0,5.9406345E1,3E0,3E0,2E0,8E0,7E0,1.15E2,1.03E2,3E0,6.6E1,6.512816E1,6.747718E1,6.936294E1,6.7713875E1,7.600009E1,8.4166405E1,6.565433E1,7.482424E1,7.760307E1,9.128522E1,7.389641E1,7E0,2E0,1.25E2,7.5E1,6.2E1,-9.6641734E-2,2E0,3.8E1,6.7E1,2.7E1,4.6E1,1.62E2,1.75E2,1.6E2,1.64E2,3E0,3E0,3E0,3E0,2.3E1,4.8E1,1E0,1E0,3E0,4E0,3E0,2.5E1,7E0,8E0,7.173597E1,9.953183E1,7.389641E1,7E0,7E0,6.840299E-2,-9.4162695E-2,-6.933601E-2,-7.222584E-2,-3.3390254E-3,-9.412545E-2,-6.670233E-2,-6.5297805E-2,-1.1018352E-3,-9.399427E-2,-5.527487E-2,9.793091E-3,5.7887085E-2,-5.5048853E-2,9.531937E-3,-6.055494E-2,-1.2619334E-2,-9.223792E-2,-6.804944E-2,9.41495E-3,6.452692E-2,-5.901849E-2,-1.0681832E-3,-7.0082285E-3,4.9969938E-2,-7.7654205E-2,-1.6014745E-2,5.0170124E-2,6.7332916E-2,-1.4201842E-2,4.490147E-2,-5.5600446E-2,2.3963305E-5,-9.491641E-2,-6.0317636E-2,1.8366648E-2,5.9817534E-2,-5.61708E-2,3.293198E-3,9.337252E-3,5.8979493E-2,-4.7059156E-2,3.3211987E-2,5.47956E-2,6.785532E-2,-9.888377E-3,6.004415E-2,-3.3545948E-3,5.943496E-2,-6.765408E-2,8.388837E-3,6.1326277E-2,1.0461508E-2,6.6077754E-2,3.9561964E-3,5.8345176E-2,-2.0382241E-3,5.4571386E-2,6.8267174E-2,5.3924847E-2,6.811166E-2],"split_indices":[5,4,4,2,2,2,2,1,5,5,5,5,5,4,4,5,4,1,1,1,1,1,1,1,1,1,1,1,5,2,4,4,4,0,2,4,4,4,4,4,4,4,4,2,2,2,2,4,4,2,2,2,2,2,4,5,5,1,1,1,5,5,0,0,0,0,0,0,0,0,0,0,0,0,0,0,0,0,0,0,0,0,0,0,0,0,0,0,0,0,0,0,0,0,0,0,0,0,0,0,0,0,0,0,0,0,0,0,0,0,0,0,0,0,0,0,0,0,0,0,0,0,0],"split_type":[0,0,0,0,0,0,0,0,0,0,0,0,0,0,0,0,0,0,0,0,0,0,0,0,0,0,0,0,0,0,0,0,0,0,0,0,0,0,0,0,0,0,0,0,0,0,0,0,0,0,0,0,0,0,0,0,0,0,0,0,0,0,0,0,0,0,0,0,0,0,0,0,0,0,0,0,0,0,0,0,0,0,0,0,0,0,0,0,0,0,0,0,0,0,0,0,0,0,0,0,0,0,0,0,0,0,0,0,0,0,0,0,0,0,0,0,0,0,0,0,0,0,0],"sum_hessian":[7.090355E3,3.784657E3,3.3056982E3,2.1368665E3,1.6477906E3,1.0191977E3,2.2865005E3,1.3123065E3,8.245599E2,6.9209344E2,9.556972E2,4.4417896E2,5.7501874E2,4.8916272E2,1.7973378E3,4.2190918E2,8.9039734E2,5.0824042E2,3.1631943E2,4.2751968E2,2.6457376E2,3.926127E2,5.6308453E2,2.8140753E2,1.6277142E2,2.4363414E2,3.313846E2,2.0317343E2,2.859893E2,5.6300055E2,1.2343372E3,2.5738278E2,1.6452638E2,5.343059E2,3.560914E2,2.0741542E2,3.00825E2,1.2803482E2,1.882846E2,2.0998811E2,2.1753157E2,1.24386894E2,1.4018686E2,2.3204817E2,1.6056451E2,4.089418E2,1.5414273E2,1.17850586E2,1.6355693E2,9.1968735E1,7.080269E1,1.4374007E2,9.989407E1,2.8259818E2,4.878644E1,1.1155342E2,9.162001E1,1.20659744E2,1.6532954E2,1.5055391E2,4.1244662E2,2.9250668E2,9.418305E2,1.7197232E2,8.541046E1,8.96199E1,7.490649E1,2.393591E2,1.1673229E2,7.231503E1,1.3510039E2,1.8397955E2,1.1684544E2,3.0343925E1,9.76909E1,8.305251E1,1.05232086E2,1.25081955E2,8.4906166E1,1.5428125E2,6.3250317E1,7.142357E1,5.2963326E1,8.0562645E1,5.962422E1,8.314066E1,1.489075E2,5.558404E1,1.0498048E2,1.4678894E2,2.6215286E2,5.3022938E1,1.0111979E2,4.0229446E1,7.762114E1,1.26268265E2,3.7288666E1,4.7024944E1,4.4943794E1,3.488531E1,3.5917377E1,5.1014984E1,9.272508E1,6.686887E1,3.3025196E1,9.526032E1,1.8733784E2,2.0353636E1,2.8432804E1,4.5157524E1,6.63959E1,5.7109753E1,3.4510258E1,6.096603E1,5.9693718E1,1.6382693E2,1.5026131E0,8.236843E1,6.8185486E1,1.6527379E2,2.4717284E2,1.1770896E2,1.7479771E2],"tree_param":{"num_deleted":"0","num_feature":"19","num_nodes":"123","size_leaf_vector":"1"}},{"base_weights":[7.6576727E-3,-5.274597E-1,4.9680433E-1,-9.1267955E-1,9.562202E-2,-7.7215717E-3,8.637107E-1,-4.5384675E-1,-1.1786436E0,4.5242307E-1,-3.3066475E-1,3.6927238E-1,-4.0380397E-1,1.1009924E0,5.4362863E-1,-8.824249E-1,-2.1110997E-1,-1.3418298E0,-8.085944E-1,1.9208763E-2,6.149533E-1,-7.020104E-1,1.957543E-2,1.3968997E-2,6.704591E-1,-7.6790005E-1,-9.386762E-2,8.7113357E-1,1.2219315E0,2.2329497E-1,8.2690847E-1,-5.4708743E-1,-1.1288322E0,-6.3300824E-1,1.983845E-2,-1.5371096E0,-1.1022305E0,-1.1970329E0,-5.551818E-1,4.1084597E-1,-2.2145219E-1,9.5633805E-1,4.8034617E-1,-1.0538166E0,-3.8503936E-1,-3.3253908E-1,3.497234E-1,-2.4246077E-1,2.570924E-1,1.0314984E0,5.506859E-1,-6.1814255E-1,-9.553211E-1,-3.2649025E-1,1.4564598E-1,6.762945E-1,1.1207502E0,1.0691231E0,1.3049794E0,1.0213575E-2,6.9704163E-1,4.417377E-1,1.0311939E0,-3.33345E-2,-6.93536E-4,-7.374825E-2,-4.653896E-2,-1.3314371E-2,-3.824106E-2,-7.896377E-3,1.0014602E-2,-6.728515E-2,-8.579808E-2,-4.4494927E-2,-6.501613E-2,-5.1304508E-2,-8.333825E-2,-1.6752658E-2,-4.6650067E-2,2.5816625E-2,-8.938568E-3,-1.8970186E-2,1.0011415E-2,3.4195803E-2,5.1372528E-2,1.209826E-2,3.561751E-2,-6.2079992E-2,-4.2318344E-2,-2.9542405E-2,-4.9361023E-3,3.984244E-3,-2.532268E-2,4.6745E-3,2.7052242E-2,-5.4787267E-3,-2.317742E-2,3.98151E-3,3.2405213E-2,1.5538426E-2,5.283029E-2,1.8895235E-2,3.936942E-2,-4.15503E-2,-2.304013E-2,-5.7733398E-2,-4.2061217E-2,-3.3066172E-2,-9.676665E-3,1.4129675E-2,-2.704288E-2,4.1294403E-2,1.5686674E-2,6.598739E-2,4.943146E-2,6.1878856E-2,4.456145E-2,6.0975205E-2,6.815025E-2,9.166682E-3,-1.4916727E-2,1.9412521E-2,4.054323E-2,-9.2916154E-5,3.7661627E-2,5.6555938E-2,4.2004667E-2],"categories":[],"categories_nodes":[],"categories_segments":[],"categories_sizes":[],"default_left":[0,0,0,0,0,0,0,0,0,0,0,0,0,0,0,0,0,0,0,0,0,0,0,0,0,0,0,0,0,0,0,0,0,0,0,0,0,0,0,0,0,0,0,0,0,0,0,0,0,0,0,0,0,0,0,0,0,0,0,0,0,0,0,0,0,0,0,0,0,0,0,0,0,0,0,0,0,0,0,0,0,0,0,0,0,0,0,0,0,0,0,0,0,0,0,0,0,0,0,0,0,0,0,0,0,0,0,0,0,0,0,0,0,0,0,0,0,0,0,0,0,0,0,0,0,0,0],"id":7,"left_children":[1,3,5,7,9,11,13,15,17,19,21,23,25,27,29,31,33,35,37,39,41,43,45,47,49,51,53,55,57,59,61,63,65,67,69,71,73,75,77,79,81,83,85,87,89,91,93,95,97,99,101,103,105,107,109,111,113,115,117,119,121,123,125,-1,-1,-1,-1,-1,-1,-1,-1,-1,-1,-1,-1,-1,-1,-1,-1,-1,-1,-1,-1,-1,-1,-1,-1,-1,-1,-1,-1,-1,-1,-1,-1,-1,-1,-1,-1,-1,-1,-1,-1,-1,-1,-1,-1,-1,-1,-1,-1,-1,-1,-1,-1,-1,-1,-1,-1,-1,-1,-1,-1,-1,-1,-1,-1],"loss_changes":[1.8407881E3,8.062031E2,6.801347E2,2.5274207E2,1.9544693E2,2.3128725E2,1.609596E2,7.921301E1,7.821838E1,4.9232834E1,7.6179016E1,8.491571E1,8.516466E1,3.286731E1,8.217102E1,2.2159653E1,4.7617012E1,4.0876343E1,3.914389E1,1.8172247E1,2.2910126E1,3.129393E1,3.5263863E1,2.2824842E1,1.8004211E1,9.154053E0,2.2843973E1,1.9877686E1,8.723145E0,4.312674E1,3.741281E1,7.560631E0,9.455444E0,8.152344E0,1.0191011E1,1.47647705E1,1.6176056E1,1.1041229E1,2.0197632E1,4.6554947E0,8.033472E0,2.0638428E0,2.0110748E1,4.175293E0,8.84634E0,1.0565979E1,7.622837E0,5.1848536E0,1.2986983E1,1.586937E0,1.2979698E1,6.17527E0,2.494217E0,9.1260605E0,1.917034E1,1.2801987E1,3.5455627E0,7.475952E0,8.7731934E-1,1.585218E1,4.3439407E0,2.3289867E1,5.040558E0,0E0,0E0,0E0,0E0,0E0,0E0,0E0,0E0,0E0,0E0,0E0,0E0,0E0,0E0,0E0,0E0,0E0,0E0,0E0,0E0,0E0,0E0,0E0,0E0,0E0,0E0,0E0,0E0,0E0,0E0,0E0,0E0,0E0,0E0,0E0,0E0,0E0,0E0,0E0,0E0,0E0,0E0,0E0,0E0,0E0,0E0,0E0,0E0,0E0,0E0,0E0,0E0,0E0,0E0,0E0,0E0,0E0,0E0,0E0,0E0,0E0,0E0,0E0,0E0],"parents":[2147483647,0,0,1,1,2,2,3,3,4,4,5,5,6,6,7,7,8,8,9,9,10,10,11,11,12,12,13,13,14,14,15,15,16,16,17,17,18,18,19,19,20,20,21,21,22,22,23,23,24,24,25,25,26,26,27,27,28,28,29,29,30,30,31,31,32,32,33,33,34,34,35,35,36,36,37,37,38,38,39,39,40,40,41,41,42,42,43,43,44,44,45,45,46,46,47,47,48,48,49,49,50,50,51,51,52,52,53,53,54,54,55,55,56,56,57,57,58,58,59,59,60,60,61,61,62,62],"right_children":[2,4,6,8,10,12,14,16,18,20,22,24,26,28,30,32,34,36,38,40,42,44,46,48,50,52,54,56,58,60,62,64,66,68,70,72,74,76,78,80,82,84,86,88,90,92,94,96,98,100,102,104,106,108,110,112,114,116,118,120,122,124,126,-1,-1,-1,-1,-1,-1,-1,-1,-1,-1,-1,-1,-1,-1,-1,-1,-1,-1,-1,-1,-1,-1,-1,-1,-1,-1,-1,-1,-1,-1,-1,-1,-1,-1,-1,-1,-1,-1,-1,-1,-1,-1,-1,-1,-1,-1,-1,-1,-1,-1,-1,-1,-1,-1,-1,-1,-1,-1,-1,-1,-1,-1,-1,-1],"split_conditions":[9.2E1,3E0,2E0,6.2482845E1,7.294001E1,7.047762E1,7.552589E1,3.4E1,2E0,2.5E1,4.5E1,1.42E2,1.41E2,3E0,1.42E2,4.9096222E1,1E0,5E1,3.6E1,5.2821186E1,4.960663E1,4E0,4E0,1E0,4.7430355E1,8.705881E1,1E0,1.55E2,1.3E2,4E0,3E0,3.982685E2,1E0,4.552827E1,2E0,8.161561E1,8.134569E1,9.128522E1,8.6128746E1,2.1E1,1.8E1,3.8E1,4E0,2.4E1,2.5E1,8.087682E1,6.4E1,5.873609E1,1.26E2,1.44E2,1.74E2,1.13E2,1.09E2,1.57E2,9.528649E1,6.4686874E1,5.3054123E1,5.849061E1,1.6E2,9.0782936E1,1.06E2,1.67E2,9.1715996E1,-3.33345E-2,-6.93536E-4,-7.374825E-2,-4.653896E-2,-1.3314371E-2,-3.824106E-2,-7.896377E-3,1.0014602E-2,-6.728515E-2,-8.579808E-2,-4.4494927E-2,-6.501613E-2,-5.1304508E-2,-8.333825E-2,-1.6752658E-2,-4.6650067E-2,2.5816625E-2,-8.938568E-3,-1.8970186E-2,1.0011415E-2,3.4195803E-2,5.1372528E-2,1.209826E-2,3.561751E-2,-6.2079992E-2,-4.2318344E-2,-2.9542405E-2,-4.9361023E-3,3.984244E-3,-2.532268E-2,4.6745E-3,2.7052242E-2,-5.4787267E-3,-2.317742E-2,3.98151E-3,3.2405213E-2,1.5538426E-2,5.283029E-2,1.8895235E-2,3.936942E-2,-4.15503E-2,-2.304013E-2,-5.7733398E-2,-4.2061217E-2,-3.3066172E-2,-9.676665E-3,1.4129675E-2,-2.704288E-2,4.1294403E-2,1.5686674E-2,6.598739E-2,4.943146E-2,6.1878856E-2,4.456145E-2,6.0975205E-2,6.815025E-2,9.166682E-3,-1.4916727E-2,1.9412521E-2,4.054323E-2,-9.2916154E-5,3.7661627E-2,5.6555938E-2,4.2004667E-2],"split_indices":[4,2,2,1,1,1,1,4,2,4,4,4,4,2,4,1,2,4,4,1,1,2,2,2,1,1,2,4,4,2,2,3,2,1,2,1,1,1,1,4,4,4,2,4,4,1,4,1,4,4,4,4,4,4,1,1,1,1,4,1,4,4,1,0,0,0,0,0,0,0,0,0,0,0,0,0,0,0,0,0,0,0,0,0,0,0,0,0,0,0,0,0,0,0,0,0,0,0,0,0,0,0,0,0,0,0,0,0,0,0,0,0,0,0,0,0,0,0,0,0,0,0,0,0,0,0,0],"split_type":[0,0,0,0,0,0,0,0,0,0,0,0,0,0,0,0,0,0,0,0,0,0,0,0,0,0,0,0,0,0,0,0,0,0,0,0,0,0,0,0,0,0,0,0,0,0,0,0,0,0,0,0,0,0,0,0,0,0,0,0,0,0,0,0,0,0,0,0,0,0,0,0,0,0,0,0,0,0,0,0,0,0,0,0,0,0,0,0,0,0,0,0,0,0,0,0,0,0,0,0,0,0,0,0,0,0,0,0,0,0,0,0,0,0,0,0,0,0,0,0,0,0,0,0,0,0,0],"sum_hessian":[7.0305957E3,3.357488E3,3.6731077E3,2.0744783E3,1.2830098E3,1.5469312E3,2.1261763E3,7.6222235E2,1.3122559E3,6.9839417E2,5.8461566E2,7.925984E2,7.543328E2,1.2196165E3,9.065599E2,2.7465457E2,4.875678E2,9.088432E2,4.0341263E2,1.9084003E2,5.0755414E2,2.832707E2,3.0134494E2,3.6411096E2,4.284874E2,3.46181E2,4.0815182E2,4.2329587E2,7.963206E2,4.2629382E2,4.8026605E2,1.1769834E2,1.5695622E2,1.7186417E2,3.1570364E2,4.9774902E2,4.1109418E2,1.5780331E2,2.4560931E2,7.236706E1,1.1847297E2,1.4180637E2,3.6574777E2,1.331561E2,1.501146E2,1.4581783E2,1.5552713E2,1.7720747E2,1.8690349E2,1.04842476E2,3.2364493E2,1.9481422E2,1.5136678E2,2.0687024E2,2.012816E2,2.39816E2,1.8347987E2,2.852798E2,5.1104083E2,2.9474515E2,1.3154868E2,1.6753978E2,3.1272626E2,9.593045E1,2.1767885E1,5.47768E1,1.02179436E2,4.6239628E1,1.25624535E2,1.5909901E2,1.5660463E2,2.4455316E2,2.5319586E2,2.0106628E2,2.1002788E2,1.1803351E2,3.9769802E1,1.563829E2,8.92264E1,6.1490314E1,1.0876745E1,8.626166E1,3.221131E1,3.1552095E1,1.10254265E2,1.8140231E2,1.8434547E2,6.727436E1,6.588173E1,8.671738E1,6.3397224E1,4.342671E1,1.0239111E2,6.7121346E1,8.840578E1,1.1161571E2,6.5591774E1,1.293852E2,5.75183E1,3.979686E0,1.0086279E2,1.8858423E2,1.3506068E2,8.0978165E1,1.1383606E2,5.1779285E1,9.9587494E1,5.76679E1,1.4920233E2,1.6829712E2,3.2984478E1,1.6886427E2,7.095173E1,6.962433E1,1.1385554E2,1.4346815E2,1.4181163E2,2.1554538E2,2.9549548E2,1.890685E2,1.0567666E2,3.6618103E1,9.493057E1,6.952463E1,9.801515E1,2.0212022E2,1.1060603E2],"tree_param":{"num_deleted":"0","num_feature":"19","num_nodes":"127","size_leaf_vector":"1"}},{"base_weights":[3.929125E-4,-4.8237392E-1,5.0488126E-1,-8.4679407E-1,1.22454025E-1,1.226551E-2,8.7095976E-1,-2.9618427E-1,-1.1360781E0,5.609219E-1,-3.0075318E-1,3.7758273E-1,-5.118724E-1,1.1430604E0,4.8386383E-1,1.2904081E-1,-6.360978E-1,-8.500115E-1,-1.5103418E0,9.4191164E-1,1.9516997E-1,6.854527E-2,-7.0699483E-1,6.6319394E-1,-1.574698E-1,-1.22368954E-1,-8.712042E-1,1.2459043E0,8.8272685E-1,8.1456167E-1,2.7839053E-2,-3.9630276E-1,3.6153242E-1,-8.44801E-1,-1.8511057E-1,-1.1587787E0,-5.685702E-1,-1.6934639E0,-1.3029636E0,5.6589305E-1,1.1391653E0,-1.8778348E-1,5.5076253E-1,4.8286915E-1,-1.9714536E-1,-1.2054499E0,-4.1631123E-1,3.775209E-1,9.821175E-1,2.9300314E-1,-4.8170152E-1,-4.7571385E-1,3.4971997E-1,-1.1001312E0,-4.48682E-1,1.1110803E0,6.5755725E-2,5.0101787E-1,1.1064758E0,4.141687E-1,1.0291562E0,-2.3340768E-1,5.3719455E-1,-4.612534E-3,-3.836393E-2,7.272842E-3,4.1518033E-2,-6.328717E-2,-3.3264667E-2,-4.935245E-2,-3.146948E-3,-7.895222E-2,-4.67116E-2,-1.7472092E-2,-4.7727887E-2,-7.5851135E-2,-8.9703895E-2,-8.229396E-2,-5.545667E-2,4.547093E-2,1.3871402E-2,6.1940677E-2,4.208081E-2,-3.285555E-2,6.6905706E-3,1.566678E-2,5.016584E-2,9.637004E-3,3.993651E-2,1.7200774E-2,-2.0067753E-2,-4.137159E-2,-7.079064E-2,-3.5837095E-2,-5.1615187E-3,3.22296E-2,6.140067E-4,6.1199695E-2,3.6542952E-2,-4.347199E-3,2.9641578E-2,-4.379915E-2,-8.3539365E-3,-9.132308E-3,-3.6349744E-2,2.9335776E-2,-1.9921025E-3,-3.3380743E-2,-5.8060598E-2,-3.3243373E-2,-1.2762903E-2,6.3232094E-2,4.0830556E-2,4.3968573E-2,-1.4441392E-4,3.838501E-2,6.3368924E-2,-6.893912E-3,2.8567016E-2,3.7785213E-2,6.4890675E-2,-1.991167E-2,2.5098538E-2,3.4453005E-2,-9.211759E-3],"categories":[],"categories_nodes":[],"categories_segments":[],"categories_sizes":[],"default_left":[0,0,0,0,0,0,0,0,0,0,0,0,0,0,0,0,0,0,0,0,0,0,0,0,0,0,0,0,0,0,0,0,0,0,0,0,0,0,0,0,0,0,0,0,0,0,0,0,0,0,0,0,0,0,0,0,0,0,0,0,0,0,0,0,0,0,0,0,0,0,0,0,0,0,0,0,0,0,0,0,0,0,0,0,0,0,0,0,0,0,0,0,0,0,0,0,0,0,0,0,0,0,0,0,0,0,0,0,0,0,0,0,0,0,0,0,0,0,0,0,0,0,0,0,0],"id":8,"left_children":[1,3,5,7,9,11,13,15,17,19,21,23,25,27,29,31,33,35,37,39,41,43,45,47,49,51,53,55,57,59,61,63,65,67,69,71,73,75,77,79,81,83,85,87,89,91,93,95,97,99,101,103,105,107,109,111,-1,113,115,117,119,121,123,-1,-1,-1,-1,-1,-1,-1,-1,-1,-1,-1,-1,-1,-1,-1,-1,-1,-1,-1,-1,-1,-1,-1,-1,-1,-1,-1,-1,-1,-1,-1,-1,-1,-1,-1,-1,-1,-1,-1,-1,-1,-1,-1,-1,-1,-1,-1,-1,-1,-1,-1,-1,-1,-1,-1,-1,-1,-1,-1,-1,-1,-1],"loss_changes":[1.7062094E3,7.8914496E2,6.1776965E2,3.555039E2,2.500913E2,2.8002985E2,2.0644519E2,1.1149539E2,1.5548022E2,9.2042145E1,1.0296451E2,1.3180026E2,8.396492E1,2.9778442E1,1.2257439E2,4.2069126E1,4.017961E1,7.165692E1,2.1833374E1,2.3379822E1,4.6257923E1,3.975203E1,4.6841476E1,5.0836975E1,4.406528E1,4.8441486E1,2.9711914E1,6.2304688E0,2.7631836E1,4.0059265E1,4.573494E1,1.186141E1,2.4037865E1,2.1274246E1,1.334645E1,3.5881714E1,3.6654816E1,3.1870117E0,1.8194E1,1.0988853E1,5.227478E0,2.4831131E1,1.8596542E1,1.2771355E1,2.4472942E1,8.3576355E0,1.9482368E1,2.9071114E1,1.5207306E1,1.4460565E1,2.1592983E1,1.2087471E1,1.1514162E1,4.557312E0,4.4896336E0,1.1902283E1,0E0,2.360335E1,1.0323334E1,1.4489813E1,2.1506683E1,2.774503E1,1.2890995E1,0E0,0E0,0E0,0E0,0E0,0E0,0E0,0E0,0E0,0E0,0E0,0E0,0E0,0E0,0E0,0E0,0E0,0E0,0E0,0E0,0E0,0E0,0E0,0E0,0E0,0E0,0E0,0E0,0E0,0E0,0E0,0E0,0E0,0E0,0E0,0E0,0E0,0E0,0E0,0E0,0E0,0E0,0E0,0E0,0E0,0E0,0E0,0E0,0E0,0E0,0E0,0E0,0E0,0E0,0E0,0E0,0E0,0E0,0E0,0E0,0E0,0E0],"parents":[2147483647,0,0,1,1,2,2,3,3,4,4,5,5,6,6,7,7,8,8,9,9,10,10,11,11,12,12,13,13,14,14,15,15,16,16,17,17,18,18,19,19,20,20,21,21,22,22,23,23,24,24,25,25,26,26,27,27,28,28,29,29,30,30,31,31,32,32,33,33,34,34,35,35,36,36,37,37,38,38,39,39,40,40,41,41,42,42,43,43,44,44,45,45,46,46,47,47,48,48,49,49,50,50,51,51,52,52,53,53,54,54,55,55,57,57,58,58,59,59,60,60,61,61,62,62],"right_children":[2,4,6,8,10,12,14,16,18,20,22,24,26,28,30,32,34,36,38,40,42,44,46,48,50,52,54,56,58,60,62,64,66,68,70,72,74,76,78,80,82,84,86,88,90,92,94,96,98,100,102,104,106,108,110,112,-1,114,116,118,120,122,124,-1,-1,-1,-1,-1,-1,-1,-1,-1,-1,-1,-1,-1,-1,-1,-1,-1,-1,-1,-1,-1,-1,-1,-1,-1,-1,-1,-1,-1,-1,-1,-1,-1,-1,-1,-1,-1,-1,-1,-1,-1,-1,-1,-1,-1,-1,-1,-1,-1,-1,-1,-1,-1,-1,-1,-1,-1,-1,-1,-1,-1,-1],"split_conditions":[9.8E1,3E0,2E0,6.800834E1,7.472963E1,8.008215E1,7.9916794E1,6.723822E1,7.482424E1,7.004151E1,7.24523E1,7.876008E1,6.82023E1,8.3717285E1,7.600009E1,2.9E1,2E0,4.7E1,5E1,3.1E1,4E0,8.48113E1,3.6E1,1.51E2,6.3705624E1,1.57E2,1.63E2,3E0,1.34E2,3E0,4E0,5.9947582E1,2E0,2.9E1,1.2E1,1E0,8.86619E1,8.008215E1,1E0,6.0936863E1,6.275331E1,4.1E1,6.2E1,4E0,4.8642746E1,8.2569725E1,4E0,6.2064156E1,6.525695E1,1.41E2,1.43E2,8.964231E1,9.183734E1,8.286607E1,1E0,6.8895226E1,6.5755725E-2,6.722545E1,3E0,1.23E2,1.46E2,1.79E2,9.702673E1,-4.612534E-3,-3.836393E-2,7.272842E-3,4.1518033E-2,-6.328717E-2,-3.3264667E-2,-4.935245E-2,-3.146948E-3,-7.895222E-2,-4.67116E-2,-1.7472092E-2,-4.7727887E-2,-7.5851135E-2,-8.9703895E-2,-8.229396E-2,-5.545667E-2,4.547093E-2,1.3871402E-2,6.1940677E-2,4.208081E-2,-3.285555E-2,6.6905706E-3,1.566678E-2,5.016584E-2,9.637004E-3,3.993651E-2,1.7200774E-2,-2.0067753E-2,-4.137159E-2,-7.079064E-2,-3.5837095E-2,-5.1615187E-3,3.22296E-2,6.140067E-4,6.1199695E-2,3.6542952E-2,-4.347199E-3,2.9641578E-2,-4.379915E-2,-8.3539365E-3,-9.132308E-3,-3.6349744E-2,2.9335776E-2,-1.9921025E-3,-3.3380743E-2,-5.8060598E-2,-3.3243373E-2,-1.2762903E-2,6.3232094E-2,4.0830556E-2,4.3968573E-2,-1.4441392E-4,3.838501E-2,6.3368924E-2,-6.893912E-3,2.8567016E-2,3.7785213E-2,6.4890675E-2,-1.991167E-2,2.5098538E-2,3.4453005E-2,-9.211759E-3],"split_indices":[4,2,2,0,0,0,0,1,1,1,1,1,1,1,1,4,2,4,4,4,2,0,4,4,0,4,4,2,4,2,2,0,2,4,4,2,0,0,2,0,1,4,4,2,1,1,2,1,0,4,4,0,0,0,2,1,0,0,2,4,4,4,0,0,0,0,0,0,0,0,0,0,0,0,0,0,0,0,0,0,0,0,0,0,0,0,0,0,0,0,0,0,0,0,0,0,0,0,0,0,0,0,0,0,0,0,0,0,0,0,0,0,0,0,0,0,0,0,0,0,0,0,0,0,0],"split_type":[0,0,0,0,0,0,0,0,0,0,0,0,0,0,0,0,0,0,0,0,0,0,0,0,0,0,0,0,0,0,0,0,0,0,0,0,0,0,0,0,0,0,0,0,0,0,0,0,0,0,0,0,0,0,0,0,0,0,0,0,0,0,0,0,0,0,0,0,0,0,0,0,0,0,0,0,0,0,0,0,0,0,0,0,0,0,0,0,0,0,0,0,0,0,0,0,0,0,0,0,0,0,0,0,0,0,0,0,0,0,0,0,0,0,0,0,0,0,0,0,0,0,0,0,0],"sum_hessian":[7.0035737E3,3.5788552E3,3.4247183E3,2.2330193E3,1.3458359E3,1.4604662E3,1.9642521E3,7.698143E2,1.4632051E3,6.6084045E2,6.849955E2,8.6078796E2,5.996783E2,1.1523086E3,8.119435E2,3.422663E2,4.27548E2,8.311732E2,6.3203186E2,3.229062E2,3.3793423E2,3.592482E2,3.2574728E2,5.610564E2,2.9973157E2,2.8840146E2,3.112768E2,8.232865E2,3.2902213E2,4.7018832E2,3.4175513E2,1.04785614E2,2.3748067E2,2.9168964E2,1.3585837E2,3.9485907E2,4.3631415E2,3.3183972E2,3.001921E2,1.1243799E2,2.104682E2,1.6293462E2,1.7499963E2,1.4004364E2,2.1920457E2,1.18831604E2,2.0691566E2,2.971081E2,2.639483E2,1.2548487E2,1.742467E2,1.6494057E2,1.2346091E2,2.008503E2,1.104265E2,2.8505054E2,5.3823596E2,1.22788246E2,2.0623387E2,1.6509056E2,3.0509778E2,2.2625266E2,1.1550247E2,5.827338E1,4.6512238E1,1.6345642E2,7.402425E1,8.53931E1,2.0629654E2,1.7025202E1,1.1883317E2,1.354034E2,2.594557E2,2.795287E2,1.5678548E2,1.26347946E2,2.0549179E2,1.05700455E2,1.9449164E2,5.033852E1,6.209947E1,1.5529654E2,5.517166E1,6.58262E1,9.7108406E1,1.1589116E2,5.910848E1,7.383442E1,6.620922E1,5.9868065E1,1.593365E2,4.4249485E1,7.458212E1,1.0493311E2,1.0198255E2,1.7117603E2,1.2593205E2,1.3251244E2,1.3143585E2,5.5660744E1,6.982413E1,7.654154E1,9.770517E1,7.6936646E1,8.800392E1,7.6447136E1,4.7013775E1,2.633076E1,1.7451955E2,5.0994156E1,5.943234E1,1.851846E2,9.986592E1,6.970542E1,5.3082825E1,6.8268265E1,1.379656E2,3.661332E1,1.2847723E2,1.5308922E2,1.5200856E2,1.8520073E2,4.1051918E1,9.545373E1,2.0048746E1],"tree_param":{"num_deleted":"0","num_feature":"19","num_nodes":"125","size_leaf_vector":"1"}},{"base_weights":[3.1244403E-3,-6.9876784E-1,8.131026E-1,-1.130061E0,6.6378966E-2,1.7982124E-1,1.0723724E0,-1.5010827E0,-5.3250223E-1,-7.0016384E-1,6.5066755E-1,-5.912212E-1,7.84365E-1,5.9945345E-1,1.2064437E0,-1.1195738E0,-1.6908857E0,3.4328023E-1,-1.0209159E0,3.3704855E-2,-1.2531878E0,1.0764648E0,-2.6089719E-2,2.1560462E-1,-1.3526882E0,1.1519916E0,1.5360169E-1,1.0773076E0,7.995918E-2,1.2874278E0,1.0026239E0,-1.5374941E0,-4.1298655E-1,-1.562041E0,-8.869738E-2,-4.8179108E-1,9.4237095E-1,-1.4700099E0,-2.9084638E-1,-7.5720364E-1,6.4465076E-1,-1.4804178E0,-1.8329622E-1,5.180826E-1,1.2259604E0,-9.24167E-1,6.49249E-1,-6.237612E-1,8.938993E-1,-1.5925459E0,-1.8053831E-1,8.749128E-1,6.481448E-2,-7.07172E-1,8.465428E-1,5.6669855E-1,1.2371708E0,-7.991852E-1,6.3516045E-1,1.1744732E0,6.575231E-2,6.306266E-1,1.2642726E0,-8.599853E-2,-5.2711274E-2,-5.8909982E-2,1.5484335E-2,-8.501073E-2,-6.0151607E-2,-6.0675602E-2,1.4286823E-2,1.5049254E-2,6.068725E-2,-8.4822126E-2,-4.1998416E-2,-4.8348892E-2,2.8539265E-2,-6.654197E-2,-1.3320416E-2,8.420675E-3,5.715687E-2,-5.5399317E-2,-8.7453924E-2,1.1581537E-2,-5.2343428E-2,-1.9772759E-2,5.1440533E-2,5.0026365E-2,6.493826E-2,-7.0752546E-2,4.3966533E-3,-1.5160253E-3,5.2626174E-2,2.8056754E-3,-5.3064466E-2,5.7421375E-2,1.6799862E-2,-6.942012E-2,-9.390776E-2,1.8422773E-2,-5.0821044E-2,1.4457588E-2,6.358032E-2,-8.104702E-2,-6.5458454E-3,1.0557105E-2,5.8512177E-2,-3.365825E-2,4.525464E-2,4.5684192E-2,6.643876E-2,-8.625467E-2,-1.4254547E-3,-1.7555287E-3,5.9957106E-2,4.311553E-2,6.430587E-2,5.0146747E-3,6.0023885E-2,5.2463483E-2,6.6669464E-2],"categories":[],"categories_nodes":[],"categories_segments":[],"categories_sizes":[],"default_left":[0,0,0,0,0,0,0,0,0,0,0,0,0,0,0,0,0,0,0,0,0,0,0,0,0,0,0,0,0,0,0,0,0,0,0,0,0,0,0,0,0,0,0,0,0,0,0,0,0,0,0,0,0,0,0,0,0,0,0,0,0,0,0,0,0,0,0,0,0,0,0,0,0,0,0,0,0,0,0,0,0,0,0,0,0,0,0,0,0,0,0,0,0,0,0,0,0,0,0,0,0,0,0,0,0,0,0,0,0,0,0,0,0,0,0,0,0,0,0,0,0],"id":9,"left_children":[1,3,5,7,9,11,13,15,17,19,21,23,25,27,29,31,33,35,37,39,41,43,45,47,49,51,53,55,57,59,61,63,65,67,-1,69,71,73,75,77,79,81,83,85,87,89,91,93,95,97,99,101,-1,103,105,107,109,111,113,115,-1,117,119,-1,-1,-1,-1,-1,-1,-1,-1,-1,-1,-1,-1,-1,-1,-1,-1,-1,-1,-1,-1,-1,-1,-1,-1,-1,-1,-1,-1,-1,-1,-1,-1,-1,-1,-1,-1,-1,-1,-1,-1,-1,-1,-1,-1,-1,-1,-1,-1,-1,-1,-1,-1,-1,-1,-1,-1,-1,-1],"loss_changes":[3.9518657E3,1.2290265E3,5.2966943E2,5.272339E2,6.0213934E2,4.3798108E2,1.4444165E2,1.0446509E2,3.9125067E2,2.3606442E2,2.1984988E2,2.5407315E2,1.2192084E2,1.2594356E2,2.813623E1,1.4433539E2,7.705078E0,1.6254889E2,1.9200977E2,1.2171816E2,8.0360535E1,3.845337E1,1.7987099E2,1.15237236E2,5.9498444E1,1.2160065E1,1.1693176E2,2.0878113E1,1.1976355E2,2.4248047E0,4.898468E1,2.5357422E1,1.0201729E2,1.7403198E1,0E0,7.819269E1,3.2761322E1,5.0382324E1,1.3150601E2,3.0558392E1,3.353896E1,2.5420166E1,2.1470284E1,4.735473E1,4.7509155E0,6.3360542E1,4.6428795E1,2.701382E1,1.5491791E1,7.677307E0,1.7468538E1,2.6805626E1,0E0,4.5877693E1,2.2070778E1,2.7829683E1,4.7268066E0,6.7751564E1,5.686246E1,7.929016E0,0E0,6.43083E1,3.0481567E0,0E0,0E0,0E0,0E0,0E0,0E0,0E0,0E0,0E0,0E0,0E0,0E0,0E0,0E0,0E0,0E0,0E0,0E0,0E0,0E0,0E0,0E0,0E0,0E0,0E0,0E0,0E0,0E0,0E0,0E0,0E0,0E0,0E0,0E0,0E0,0E0,0E0,0E0,0E0,0E0,0E0,0E0,0E0,0E0,0E0,0E0,0E0,0E0,0E0,0E0,0E0,0E0,0E0,0E0,0E0,0E0,0E0,0E0],"parents":[2147483647,0,0,1,1,2,2,3,3,4,4,5,5,6,6,7,7,8,8,9,9,10,10,11,11,12,12,13,13,14,14,15,15,16,16,17,17,18,18,19,19,20,20,21,21,22,22,23,23,24,24,25,25,26,26,27,27,28,28,29,29,30,30,31,31,32,32,33,33,35,35,36,36,37,37,38,38,39,39,40,40,41,41,42,42,43,43,44,44,45,45,46,46,47,47,48,48,49,49,50,50,51,51,53,53,54,54,55,55,56,56,57,57,58,58,59,59,61,61,62,62],"right_children":[2,4,6,8,10,12,14,16,18,20,22,24,26,28,30,32,34,36,38,40,42,44,46,48,50,52,54,56,58,60,62,64,66,68,-1,70,72,74,76,78,80,82,84,86,88,90,92,94,96,98,100,102,-1,104,106,108,110,112,114,116,-1,118,120,-1,-1,-1,-1,-1,-1,-1,-1,-1,-1,-1,-1,-1,-1,-1,-1,-1,-1,-1,-1,-1,-1,-1,-1,-1,-1,-1,-1,-1,-1,-1,-1,-1,-1,-1,-1,-1,-1,-1,-1,-1,-1,-1,-1,-1,-1,-1,-1,-1,-1,-1,-1,-1,-1,-1,-1,-1,-1],"split_conditions":[5E0,1.25E2,5.4E1,3E0,2E0,2E0,1E0,6.722545E1,6.800834E1,7.208342E1,8.1273575E1,7.556944E1,8.183905E1,7.747496E1,8.630708E1,3E0,8.008215E1,2E0,3E0,2E0,4E0,1E0,2E0,7E0,9E0,3E0,7E0,8.7E1,7E0,6E0,7E0,9.1E1,6.2E1,8.9E1,-8.869738E-2,6.2E1,3.4E1,9E1,6.8E1,1E0,1E0,8.4428955E1,9.183734E1,3E0,2E0,4E0,3E0,6.014202E1,6.858166E1,8.943103E1,9.223484E1,7E0,6.481448E-2,3E0,3E0,6E0,6E0,1.19E2,1.16E2,2E0,6.575231E-2,1.27E2,2E0,-8.599853E-2,-5.2711274E-2,-5.8909982E-2,1.5484335E-2,-8.501073E-2,-6.0151607E-2,-6.0675602E-2,1.4286823E-2,1.5049254E-2,6.068725E-2,-8.4822126E-2,-4.1998416E-2,-4.8348892E-2,2.8539265E-2,-6.654197E-2,-1.3320416E-2,8.420675E-3,5.715687E-2,-5.5399317E-2,-8.7453924E-2,1.1581537E-2,-5.2343428E-2,-1.9772759E-2,5.1440533E-2,5.0026365E-2,6.493826E-2,-7.0752546E-2,4.3966533E-3,-1.5160253E-3,5.2626174E-2,2.8056754E-3,-5.3064466E-2,5.7421375E-2,1.6799862E-2,-6.942012E-2,-9.390776E-2,1.8422773E-2,-5.0821044E-2,1.4457588E-2,6.358032E-2,-8.104702E-2,-6.5458454E-3,1.0557105E-2,5.8512177E-2,-3.365825E-2,4.525464E-2,4.5684192E-2,6.643876E-2,-8.625467E-2,-1.4254547E-3,-1.7555287E-3,5.9957106E-2,4.311553E-2,6.430587E-2,5.0146747E-3,6.0023885E-2,5.2463483E-2,6.6669464E-2],"split_indices":[5,4,4,2,2,2,2,0,0,0,0,0,0,0,0,5,0,5,5,5,5,5,5,5,5,2,5,4,5,5,5,4,4,4,0,4,4,4,4,2,2,0,0,2,5,2,2,0,0,0,0,5,0,2,2,5,5,4,4,2,0,4,2,0,0,0,0,0,0,0,0,0,0,0,0,0,0,0,0,0,0,0,0,0,0,0,0,0,0,0,0,0,0,0,0,0,0,0,0,0,0,0,0,0,0,0,0,0,0,0,0,0,0,0,0,0,0,0,0,0,0],"split_type":[0,0,0,0,0,0,0,0,0,0,0,0,0,0,0,0,0,0,0,0,0,0,0,0,0,0,0,0,0,0,0,0,0,0,0,0,0,0,0,0,0,0,0,0,0,0,0,0,0,0,0,0,0,0,0,0,0,0,0,0,0,0,0,0,0,0,0,0,0,0,0,0,0,0,0,0,0,0,0,0,0,0,0,0,0,0,0,0,0,0,0,0,0,0,0,0,0,0,0,0,0,0,0,0,0,0,0,0,0,0,0,0,0,0,0,0,0,0,0,0,0],"sum_hessian":[6.949178E3,3.7230662E3,3.226112E3,2.3806687E3,1.3423973E3,9.376188E2,2.2884932E3,1.4678038E3,9.1286487E2,5.8055475E2,7.6184265E2,4.1207516E2,5.2554364E2,5.0668765E2,1.7818055E3,4.899304E2,9.7787354E2,3.26933E2,5.859318E2,2.4988875E2,3.3066602E2,4.672629E2,2.945797E2,2.0042654E2,2.1164862E2,3.3150616E2,1.9403746E2,2.6336185E2,2.433258E2,1.2713431E3,5.104624E2,3.0711014E2,1.8282025E2,3.910645E2,5.86809E2,1.3761064E2,1.8932237E2,3.621474E2,2.2378444E2,1.08800354E2,1.410884E2,2.7242337E2,5.824266E1,9.962358E1,3.6763934E2,1.2628082E2,1.6829889E2,8.961345E1,1.10813095E2,1.7539815E2,3.6250477E1,1.15941055E2,2.1556511E2,8.652959E1,1.0750787E2,6.3878048E1,1.9948381E2,9.4015564E1,1.4931024E2,2.583323E2,1.0130109E3,2.121912E2,2.982712E2,2.2107559E2,8.6034546E1,8.849048E1,9.432977E1,2.7968494E2,1.1137957E2,7.015112E1,6.745951E1,5.6914783E1,1.324076E2,2.651586E2,9.698879E1,1.2532126E2,9.846318E1,4.9377235E1,5.942312E1,7.283865E1,6.824974E1,1.16311005E2,1.5611235E2,3.9834743E1,1.8407915E1,3.5804993E1,6.381859E1,9.3345764E1,2.7429358E2,8.476862E1,4.15122E1,6.302256E1,1.0527633E2,3.5430218E1,5.4183235E1,7.536933E1,3.544376E1,1.0570507E2,6.969308E1,2.2217556E1,1.403292E1,4.7512543E1,6.8428505E1,3.276353E1,5.376606E1,3.6842003E1,7.066586E1,1.3483975E1,5.0394073E1,4.644483E1,1.5303899E2,4.2144165E1,5.1871395E1,6.8654594E1,8.0655655E1,7.035113E1,1.8798116E2,1.105156E2,1.0167559E2,7.6495674E1,2.2177554E2],"tree_param":{"num_deleted":"0","num_feature":"19","num_nodes":"121","size_leaf_vector":"1"}},{"base_weights":[4.5438516E-3,-6.630059E-1,7.906602E-1,-1.0832136E0,4.034347E-2,1.8913676E-1,1.0558816E0,-1.4475491E0,-4.9907234E-1,-6.784128E-1,6.08636E-1,-5.1985395E-1,7.7193147E-1,6.071517E-1,1.1857806E0,-9.0825623E-1,-1.5612314E0,2.5797752E-1,-1.0375463E0,1.3671674E-1,-1.207335E0,1.003704E0,-1.1607804E-1,2.4008611E-1,-1.2387323E0,1.1480323E0,1.7654957E-1,1.0896757E0,8.780458E-2,1.2683434E0,9.533617E-1,-1.377407E0,-1.6427815E-1,-1.3441556E0,-1.6672544E0,-5.4138696E-1,8.111589E-1,-1.4820137E0,-3.4026328E-1,-4.11181E-1,1.0351194E0,-1.6033518E0,-5.5133134E-1,6.7334545E-1,1.2471708E0,-9.815606E-1,5.59839E-1,-5.736518E-1,9.1793126E-1,-1.6359482E0,-5.3463197E-1,1.2549478E0,5.735372E-1,-6.2592137E-1,7.8900135E-1,1.278943E0,7.4170476E-1,-6.574528E-1,6.893638E-1,1.156953E0,6.4798884E-2,4.300922E-1,1.1511754E0,-4.761254E-2,-8.537131E-2,3.4747984E-2,-5.2946996E-2,-7.5771116E-2,-3.1159172E-2,-7.784998E-2,-8.584591E-2,8.973652E-3,-7.429629E-2,3.8670176E-3,5.77747E-2,-8.423602E-2,-4.5724396E-2,3.011309E-2,-5.169922E-2,3.018394E-2,-5.26352E-2,6.4087294E-2,-2.3639724E-3,-4.5849007E-2,-8.46956E-2,2.2469394E-2,-6.6917285E-2,6.0551293E-2,8.3235055E-3,6.517098E-2,5.234292E-2,-1.1604122E-2,-8.492856E-2,4.982858E-2,-2.1914972E-2,3.1220896E-2,-6.579966E-2,5.739819E-2,-1.13827335E-2,-4.0188402E-2,-8.723584E-2,2.0543791E-2,-6.634944E-2,6.479404E-2,5.0279893E-2,-4.1789766E-2,4.8723664E-2,2.342054E-2,-7.0250906E-2,5.144104E-2,-2.2871377E-2,5.3118017E-2,6.6392176E-2,-7.331613E-3,5.7330023E-2,9.52338E-3,-7.196342E-2,-3.942157E-6,5.787776E-2,6.55115E-2,4.37595E-2,-1.0157842E-2,5.499769E-2,4.6399824E-2,6.54137E-2],"categories":[],"categories_nodes":[],"categories_segments":[],"categories_sizes":[],"default_left":[0,0,0,0,0,0,0,0,0,0,0,0,0,0,0,0,0,0,0,0,0,0,0,0,0,0,0,0,0,0,0,0,0,0,0,0,0,0,0,0,0,0,0,0,0,0,0,0,0,0,0,0,0,0,0,0,0,0,0,0,0,0,0,0,0,0,0,0,0,0,0,0,0,0,0,0,0,0,0,0,0,0,0,0,0,0,0,0,0,0,0,0,0,0,0,0,0,0,0,0,0,0,0,0,0,0,0,0,0,0,0,0,0,0,0,0,0,0,0,0,0,0,0,0,0],"id":10,"left_children":[1,3,5,7,9,11,13,15,17,19,21,23,25,27,29,31,33,35,37,39,41,43,45,47,49,51,53,55,57,59,61,63,65,67,69,71,73,75,77,79,81,83,85,87,89,91,93,95,97,99,101,103,105,107,109,111,113,115,117,119,-1,121,123,-1,-1,-1,-1,-1,-1,-1,-1,-1,-1,-1,-1,-1,-1,-1,-1,-1,-1,-1,-1,-1,-1,-1,-1,-1,-1,-1,-1,-1,-1,-1,-1,-1,-1,-1,-1,-1,-1,-1,-1,-1,-1,-1,-1,-1,-1,-1,-1,-1,-1,-1,-1,-1,-1,-1,-1,-1,-1,-1,-1,-1,-1],"loss_changes":[3.5994575E3,1.096331E3,5.0231262E2,4.934646E2,5.674526E2,3.9915738E2,1.26687256E2,8.6225586E1,3.6449985E2,2.6464343E2,2.2223264E2,2.3847826E2,1.1849194E2,1.2338408E2,3.1297607E1,8.74787E1,2.4900146E1,1.6501134E2,1.6137195E2,1.1969559E2,9.579242E1,3.9551697E1,1.6118872E2,1.1789216E2,6.1831787E1,1.9222565E1,1.0193061E2,1.5867859E1,1.0733325E2,2.3389893E0,4.588376E1,1.9976929E1,7.631026E1,4.7476135E1,1.6425781E0,1.04315735E2,5.5590286E1,3.5121582E1,1.3441904E2,9.909361E1,2.464003E1,1.2837952E1,1.1212965E2,5.8460495E1,1.8798523E0,6.450965E1,6.792677E1,8.7368286E1,3.0952682E1,1.152832E1,6.2241203E1,1.4821777E0,3.0640293E1,7.730179E1,3.5592728E1,3.2629395E-1,3.337969E1,7.1203125E1,4.2740185E1,9.960388E0,0E0,5.304045E1,1.0165009E1,0E0,0E0,0E0,0E0,0E0,0E0,0E0,0E0,0E0,0E0,0E0,0E0,0E0,0E0,0E0,0E0,0E0,0E0,0E0,0E0,0E0,0E0,0E0,0E0,0E0,0E0,0E0,0E0,0E0,0E0,0E0,0E0,0E0,0E0,0E0,0E0,0E0,0E0,0E0,0E0,0E0,0E0,0E0,0E0,0E0,0E0,0E0,0E0,0E0,0E0,0E0,0E0,0E0,0E0,0E0,0E0,0E0,0E0,0E0,0E0,0E0,0E0],"parents":[2147483647,0,0,1,1,2,2,3,3,4,4,5,5,6,6,7,7,8,8,9,9,10,10,11,11,12,12,13,13,14,14,15,15,16,16,17,17,18,18,19,19,20,20,21,21,22,22,23,23,24,24,25,25,26,26,27,27,28,28,29,29,30,30,31,31,32,32,33,33,34,34,35,35,36,36,37,37,38,38,39,39,40,40,41,41,42,42,43,43,44,44,45,45,46,46,47,47,48,48,49,49,50,50,51,51,52,52,53,53,54,54,55,55,56,56,57,57,58,58,59,59,61,61,62,62],"right_children":[2,4,6,8,10,12,14,16,18,20,22,24,26,28,30,32,34,36,38,40,42,44,46,48,50,52,54,56,58,60,62,64,66,68,70,72,74,76,78,80,82,84,86,88,90,92,94,96,98,100,102,104,106,108,110,112,114,116,118,120,-1,122,124,-1,-1,-1,-1,-1,-1,-1,-1,-1,-1,-1,-1,-1,-1,-1,-1,-1,-1,-1,-1,-1,-1,-1,-1,-1,-1,-1,-1,-1,-1,-1,-1,-1,-1,-1,-1,-1,-1,-1,-1,-1,-1,-1,-1,-1,-1,-1,-1,-1,-1,-1,-1,-1,-1,-1,-1,-1,-1,-1,-1,-1,-1],"split_conditions":[5E0,1.22E2,5.6E1,3E0,2E0,2E0,1E0,5.891628E1,7.056097E1,7.03714E1,8.344882E1,7.556944E1,8.146096E1,7.747496E1,8.766169E1,3E0,5.9871483E1,2E0,3E0,3E0,3E0,2E0,2E0,7E0,8E0,9.246903E1,7E0,8.0633316E1,1.15E2,6E0,2E0,6.747718E1,7.173597E1,4E0,7.191741E1,7.389641E1,3.4E1,9E1,6.7961494E1,6.3939808E1,8.844793E1,4.770184E1,6.512816E1,6.8895226E1,8.6128746E1,7.319264E1,8.2569725E1,6.2482845E1,8.913783E1,4.696539E1,6.936294E1,7.729663E1,6E0,6.4480316E1,9.1032425E1,6E0,1.02E2,7.047762E1,7E0,7.831519E1,6.4798884E-2,1.25E2,7E0,-4.761254E-2,-8.537131E-2,3.4747984E-2,-5.2946996E-2,-7.5771116E-2,-3.1159172E-2,-7.784998E-2,-8.584591E-2,8.973652E-3,-7.429629E-2,3.8670176E-3,5.77747E-2,-8.423602E-2,-4.5724396E-2,3.011309E-2,-5.169922E-2,3.018394E-2,-5.26352E-2,6.4087294E-2,-2.3639724E-3,-4.5849007E-2,-8.46956E-2,2.2469394E-2,-6.6917285E-2,6.0551293E-2,8.3235055E-3,6.517098E-2,5.234292E-2,-1.1604122E-2,-8.492856E-2,4.982858E-2,-2.1914972E-2,3.1220896E-2,-6.579966E-2,5.739819E-2,-1.13827335E-2,-4.0188402E-2,-8.723584E-2,2.0543791E-2,-6.634944E-2,6.479404E-2,5.0279893E-2,-4.1789766E-2,4.8723664E-2,2.342054E-2,-7.0250906E-2,5.144104E-2,-2.2871377E-2,5.3118017E-2,6.6392176E-2,-7.331613E-3,5.7330023E-2,9.52338E-3,-7.196342E-2,-3.942157E-6,5.787776E-2,6.55115E-2,4.37595E-2,-1.0157842E-2,5.499769E-2,4.6399824E-2,6.54137E-2],"split_indices":[5,4,4,2,2,2,2,0,0,0,0,0,0,0,0,5,1,5,5,5,5,5,5,5,5,1,5,1,4,5,2,1,1,5,0,1,4,4,1,1,1,1,1,1,1,1,1,1,1,1,1,0,5,1,1,5,4,1,5,1,0,4,5,0,0,0,0,0,0,0,0,0,0,0,0,0,0,0,0,0,0,0,0,0,0,0,0,0,0,0,0,0,0,0,0,0,0,0,0,0,0,0,0,0,0,0,0,0,0,0,0,0,0,0,0,0,0,0,0,0,0,0,0,0,0],"split_type":[0,0,0,0,0,0,0,0,0,0,0,0,0,0,0,0,0,0,0,0,0,0,0,0,0,0,0,0,0,0,0,0,0,0,0,0,0,0,0,0,0,0,0,0,0,0,0,0,0,0,0,0,0,0,0,0,0,0,0,0,0,0,0,0,0,0,0,0,0,0,0,0,0,0,0,0,0,0,0,0,0,0,0,0,0,0,0,0,0,0,0,0,0,0,0,0,0,0,0,0,0,0,0,0,0,0,0,0,0,0,0,0,0,0,0,0,0,0,0,0,0,0,0,0,0],"sum_hessian":[6.8570933E3,3.7082769E3,3.1488167E3,2.321052E3,1.3872249E3,9.6405304E2,2.1847634E3,1.428563E3,8.92489E2,6.124394E2,7.7478546E2,4.349855E2,5.290675E2,4.9174133E2,1.6930222E3,2.5027635E2,1.1782866E3,3.711723E2,5.213167E2,2.4130397E2,3.7113544E2,5.0118588E2,2.7359955E2,2.117775E2,2.2320801E2,3.236749E2,2.0539261E2,2.5433821E2,2.374031E2,1.2459596E3,4.4706262E2,1.5296535E2,9.7311E1,3.9113663E2,7.8715E2,1.5181548E2,2.1935681E2,3.176881E2,2.0362859E2,1.5022838E2,9.10756E1,2.3052676E2,1.4060869E2,2.142446E2,2.8694128E2,1.1977748E2,1.5382207E2,9.631147E1,1.15466034E2,1.4185661E2,8.1351395E1,2.718907E2,5.1784203E1,8.889503E1,1.16497574E2,1.630028E2,9.13354E1,1.05995224E2,1.3140788E2,2.5618152E2,9.897781E2,1.2351281E2,3.235498E2,6.854535E1,8.4420006E1,4.9752068E1,4.7558926E1,3.151669E2,7.5969696E1,2.5450066E2,5.3264935E2,8.656226E1,6.525322E1,7.044814E1,1.4890866E2,2.3262979E2,8.505832E1,8.638854E1,1.1724005E2,5.8206833E1,9.202154E1,7.402476E1,1.7050838E1,2.816731E1,2.0235945E2,6.2089046E1,7.851964E1,1.0328903E2,1.1095557E2,2.1973235E2,6.720894E1,5.9210007E1,6.056747E1,1.0700424E2,4.681783E1,3.6906567E1,5.94049E1,9.615595E1,1.9310087E1,1.7367657E1,1.2448896E2,3.7310623E1,4.4040775E1,2.2994592E2,4.1944767E1,1.1228885E1,4.0555317E1,3.7134323E1,5.1760708E1,9.784607E1,1.8651506E1,3.4210026E1,1.2879279E2,2.8795729E1,6.2539673E1,5.121079E1,5.4784435E1,5.3550743E1,7.785714E1,1.6355737E2,9.262414E1,6.3849674E1,5.9663136E1,1.365169E2,1.870329E2],"tree_param":{"num_deleted":"0","num_feature":"19","num_nodes":"125","size_leaf_vector":"1"}},{"base_weights":[7.656994E-3,-4.2784217E-1,4.5844743E-1,-7.5573045E-1,1.22130424E-1,1.079785E-2,8.008295E-1,-2.5251812E-1,-1.0221905E0,6.6400504E-1,-1.7708384E-1,6.245552E-1,-2.4312243E-1,1.0288168E0,3.2760337E-1,2.4642816E-1,-5.0446403E-1,-7.23029E-1,-1.3329272E0,9.998577E-1,2.874054E-1,7.6269336E-2,-6.7655677E-1,8.871775E-1,1.4233026E-1,1.03571765E-1,-5.9334534E-1,1.2277011E0,8.5910195E-1,6.7731845E-1,-1.1578111E-1,-1.6281557E-1,4.624127E-1,-9.0177995E-1,-2.8124434E-1,-1.1228393E0,-5.187954E-1,-1.5189261E0,-1.1637197E0,7.615802E-1,1.2078768E0,-3.0491637E-2,5.63361E-1,3.8475373E-1,-2.1558382E-1,-1.2453902E0,-4.9114993E-1,5.945723E-1,1.1910788E0,-1.9733395E-1,4.166582E-1,-1.543902E-1,5.237268E-1,-8.3894914E-1,-2.0744704E-1,1.2592669E0,1.0288497E0,4.849456E-1,1.0621456E0,2.662191E-1,8.966335E-1,-5.1090264E-1,2.1075334E-1,1.6876174E-2,-2.1921022E-2,-4.723873E-3,3.481128E-2,-6.262972E-2,-3.5830457E-2,-3.5091103E-3,-3.2739494E-2,-3.841286E-2,-6.864622E-2,-4.3768086E-2,-1.6434865E-2,-7.1879506E-2,-8.5744575E-2,-7.341294E-2,-4.971711E-2,2.5259852E-2,5.1574558E-2,6.562305E-2,5.2189797E-2,-2.240446E-2,1.5956514E-2,1.721967E-2,3.79073E-2,4.518575E-3,3.496973E-2,1.5424718E-2,-1.7942559E-2,-4.9561348E-2,-8.183724E-2,-3.93948E-2,-8.687847E-3,4.0055644E-2,1.0778104E-2,5.1656183E-2,6.62271E-2,-4.9799317E-3,-3.656016E-2,3.8132273E-2,9.239483E-3,7.0976713E-3,-2.355594E-2,3.5074636E-2,-2.2212898E-3,-2.9423868E-2,-5.3622957E-2,6.866861E-3,-2.3372233E-2,5.6671496E-2,6.4133726E-2,3.548033E-2,6.0567934E-2,4.199036E-2,5.67851E-3,3.984439E-2,6.126682E-2,2.98698E-2,-1.4839788E-3,2.899211E-2,6.181837E-2,-4.7129538E-2,-1.15330955E-2,-1.9943644E-4,3.1286623E-2],"categories":[],"categories_nodes":[],"categories_segments":[],"categories_sizes":[],"default_left":[0,0,0,0,0,0,0,0,0,0,0,0,0,0,0,0,0,0,0,0,0,0,0,0,0,0,0,0,0,0,0,0,0,0,0,0,0,0,0,0,0,0,0,0,0,0,0,0,0,0,0,0,0,0,0,0,0,0,0,0,0,0,0,0,0,0,0,0,0,0,0,0,0,0,0,0,0,0,0,0,0,0,0,0,0,0,0,0,0,0,0,0,0,0,0,0,0,0,0,0,0,0,0,0,0,0,0,0,0,0,0,0,0,0,0,0,0,0,0,0,0,0,0,0,0,0,0],"id":11,"left_children":[1,3,5,7,9,11,13,15,17,19,21,23,25,27,29,31,33,35,37,39,41,43,45,47,49,51,53,55,57,59,61,63,65,67,69,71,73,75,77,79,81,83,85,87,89,91,93,95,97,99,101,103,105,107,109,111,113,115,117,119,121,123,125,-1,-1,-1,-1,-1,-1,-1,-1,-1,-1,-1,-1,-1,-1,-1,-1,-1,-1,-1,-1,-1,-1,-1,-1,-1,-1,-1,-1,-1,-1,-1,-1,-1,-1,-1,-1,-1,-1,-1,-1,-1,-1,-1,-1,-1,-1,-1,-1,-1,-1,-1,-1,-1,-1,-1,-1,-1,-1,-1,-1,-1,-1,-1,-1],"loss_changes":[1.3180594E3,6.1589307E2,5.0562134E2,2.866217E2,2.0705902E2,2.231247E2,2.0133862E2,9.340294E1,1.290409E2,5.7168808E1,1.0420619E2,5.29339E1,1.2303059E2,4.151013E1,9.454464E1,2.2141392E1,4.3504097E1,5.7776306E1,1.9784302E1,1.0962082E1,1.892597E1,4.9328728E1,2.8612442E1,2.3395248E1,1.3958063E1,5.533433E1,4.7590607E1,2.3342896E0,5.1429626E1,3.0482346E1,3.487782E1,1.2142004E1,2.1376297E1,1.0602203E1,2.4974926E1,2.0297455E1,3.1903091E1,2.6818848E0,1.7256958E1,7.398178E0,7.9704285E-1,1.4905134E1,4.6623993E0,2.4600208E1,2.126223E1,5.0881653E0,1.9701477E1,1.0793915E1,1.4135742E0,3.4342096E0,6.493743E0,2.9786465E1,1.9640755E1,1.7361618E1,1.775344E1,3.0517578E-3,4.074753E0,3.1845264E1,1.81734E1,1.1773357E1,2.3151688E1,1.4569775E1,1.32145195E1,0E0,0E0,0E0,0E0,0E0,0E0,0E0,0E0,0E0,0E0,0E0,0E0,0E0,0E0,0E0,0E0,0E0,0E0,0E0,0E0,0E0,0E0,0E0,0E0,0E0,0E0,0E0,0E0,0E0,0E0,0E0,0E0,0E0,0E0,0E0,0E0,0E0,0E0,0E0,0E0,0E0,0E0,0E0,0E0,0E0,0E0,0E0,0E0,0E0,0E0,0E0,0E0,0E0,0E0,0E0,0E0,0E0,0E0,0E0,0E0,0E0,0E0,0E0,0E0],"parents":[2147483647,0,0,1,1,2,2,3,3,4,4,5,5,6,6,7,7,8,8,9,9,10,10,11,11,12,12,13,13,14,14,15,15,16,16,17,17,18,18,19,19,20,20,21,21,22,22,23,23,24,24,25,25,26,26,27,27,28,28,29,29,30,30,31,31,32,32,33,33,34,34,35,35,36,36,37,37,38,38,39,39,40,40,41,41,42,42,43,43,44,44,45,45,46,46,47,47,48,48,49,49,50,50,51,51,52,52,53,53,54,54,55,55,56,56,57,57,58,58,59,59,60,60,61,61,62,62],"right_children":[2,4,6,8,10,12,14,16,18,20,22,24,26,28,30,32,34,36,38,40,42,44,46,48,50,52,54,56,58,60,62,64,66,68,70,72,74,76,78,80,82,84,86,88,90,92,94,96,98,100,102,104,106,108,110,112,114,116,118,120,122,124,126,-1,-1,-1,-1,-1,-1,-1,-1,-1,-1,-1,-1,-1,-1,-1,-1,-1,-1,-1,-1,-1,-1,-1,-1,-1,-1,-1,-1,-1,-1,-1,-1,-1,-1,-1,-1,-1,-1,-1,-1,-1,-1,-1,-1,-1,-1,-1,-1,-1,-1,-1,-1,-1,-1,-1,-1,-1,-1,-1,-1,-1,-1,-1,-1],"split_conditions":[9.7E1,3E0,2E0,6.800834E1,6.800834E1,6.525695E1,8.4607285E1,6.0106552E1,7.15087E1,7.268752E1,8.0174995E1,7.831519E1,7.047762E1,6.8895226E1,7.577291E1,1E0,1E0,3.3E1,4.5E1,4.5E1,4.5E1,8.405743E1,2.4E1,1.49E2,1.41E2,1.6E2,1.6E2,7.952213E1,3E0,3E0,1.42E2,4.696539E1,2.7E1,3.4E1,8.6128746E1,8.183905E1,1E0,9.246903E1,1E0,4E0,6.0350582E1,4E0,4E0,4E0,4.8642746E1,8.964231E1,4E0,6.489159E1,1E0,1E0,5.542516E1,8.386063E1,9.126935E1,8.2676346E1,8.008215E1,1.14E2,3E0,6.800834E1,1.35E2,5.5843384E1,1.49E2,3E0,4E0,1.6876174E-2,-2.1921022E-2,-4.723873E-3,3.481128E-2,-6.262972E-2,-3.5830457E-2,-3.5091103E-3,-3.2739494E-2,-3.841286E-2,-6.864622E-2,-4.3768086E-2,-1.6434865E-2,-7.1879506E-2,-8.5744575E-2,-7.341294E-2,-4.971711E-2,2.5259852E-2,5.1574558E-2,6.562305E-2,5.2189797E-2,-2.240446E-2,1.5956514E-2,1.721967E-2,3.79073E-2,4.518575E-3,3.496973E-2,1.5424718E-2,-1.7942559E-2,-4.9561348E-2,-8.183724E-2,-3.93948E-2,-8.687847E-3,4.0055644E-2,1.0778104E-2,5.1656183E-2,6.62271E-2,-4.9799317E-3,-3.656016E-2,3.8132273E-2,9.239483E-3,7.0976713E-3,-2.355594E-2,3.5074636E-2,-2.2212898E-3,-2.9423868E-2,-5.3622957E-2,6.866861E-3,-2.3372233E-2,5.6671496E-2,6.4133726E-2,3.548033E-2,6.0567934E-2,4.199036E-2,5.67851E-3,3.984439E-2,6.126682E-2,2.98698E-2,-1.4839788E-3,2.899211E-2,6.181837E-2,-4.7129538E-2,-1.15330955E-2,-1.9943644E-4,3.1286623E-2],"split_indices":[4,2,2,0,0,0,0,1,1,1,1,1,1,1,1,2,2,4,4,4,4,0,4,4,4,4,4,0,2,2,4,1,4,4,1,0,2,1,2,2,0,2,2,2,1,0,2,1,2,16,0,0,0,0,0,4,2,0,4,1,4,2,2,0,0,0,0,0,0,0,0,0,0,0,0,0,0,0,0,0,0,0,0,0,0,0,0,0,0,0,0,0,0,0,0,0,0,0,0,0,0,0,0,0,0,0,0,0,0,0,0,0,0,0,0,0,0,0,0,0,0,0,0,0,0,0,0],"split_type":[0,0,0,0,0,0,0,0,0,0,0,0,0,0,0,0,0,0,0,0,0,0,0,0,0,0,0,0,0,0,0,0,0,0,0,0,0,0,0,0,0,0,0,0,0,0,0,0,0,0,0,0,0,0,0,0,0,0,0,0,0,0,0,0,0,0,0,0,0,0,0,0,0,0,0,0,0,0,0,0,0,0,0,0,0,0,0,0,0,0,0,0,0,0,0,0,0,0,0,0,0,0,0,0,0,0,0,0,0,0,0,0,0,0,0,0,0,0,0,0,0,0,0,0,0,0,0],"sum_hessian":[6.7118716E3,3.413862E3,3.2980095E3,2.138522E3,1.2753401E3,1.4297307E3,1.8682788E3,7.410292E2,1.3974929E3,4.5326382E2,8.2207623E2,4.1797437E2,1.0117564E3,1.2600482E3,6.082305E2,2.4864395E2,4.9238525E2,7.137029E2,6.8379E2,2.3871873E2,2.1454509E2,5.4598004E2,2.760962E2,2.70059E2,1.4791539E2,5.0879355E2,5.0296286E2,5.772963E2,6.8275195E2,3.3973798E2,2.6849255E2,8.597886E1,1.6266508E2,1.7602783E2,3.1635742E2,2.3978976E2,4.7391315E2,3.2193304E2,3.6185693E2,1.13439476E2,1.2527926E2,1.0010964E2,1.1443544E2,2.652726E2,2.8070746E2,6.6464424E1,2.0963176E2,1.3909276E2,1.3096622E2,6.621309E1,8.17023E1,3.156357E2,1.9315784E2,3.0663312E2,1.9632973E2,4.9360803E2,8.368829E1,2.4136592E2,4.4138602E2,1.1896172E2,2.2077625E2,1.2123186E2,1.472607E2,3.0458738E1,5.552012E1,4.8276695E1,1.1438839E2,5.882213E1,1.172057E2,2.0290126E2,1.1345616E2,1.00859116E2,1.3893065E2,1.6354591E2,3.1036725E2,2.3339688E2,8.853617E1,1.2658673E2,2.3527019E2,5.965042E1,5.3789055E1,7.2236984E1,5.304227E1,4.5491623E1,5.4618023E1,5.5176655E1,5.9258785E1,1.3771335E2,1.2755925E2,6.001537E1,2.2069208E2,4.243685E1,2.4027576E1,1.0757359E2,1.0205817E2,8.930988E1,4.978287E1,6.3982773E1,6.698345E1,5.697014E1,9.24295E0,3.1865074E1,4.9837227E1,1.6335045E2,1.5228525E2,1.4694606E2,4.6211773E1,1.4964177E2,1.5699135E2,8.460558E1,1.1172415E2,8.516962E1,4.0843845E2,3.221905E1,5.1469242E1,1.2278214E2,1.1858377E2,1.7035934E2,2.7102667E2,5.5653767E1,6.3307953E1,1.1564637E2,1.0512988E2,4.6790848E1,7.444101E1,9.769578E1,4.9564915E1],"tree_param":{"num_deleted":"0","num_feature":"19","num_nodes":"127","size_leaf_vector":"1"}},{"base_weights":[-1.1124766E-3,-7.924354E-1,6.3568056E-1,-1.1420001E0,-1.3089103E-1,1.5301536E-1,1.0088465E0,-1.3296859E0,-3.4607702E-1,-6.102549E-1,7.688273E-1,-3.6436963E-1,7.504818E-1,5.607524E-1,1.1386333E0,-7.9501516E-1,-1.467825E0,9.693223E-2,-1.4065353E0,1.5458947E-1,-1.1718385E0,1.1298356E0,3.5755653E-2,-8.6933964E-1,5.463228E-1,-1.5193075E-1,1.0275081E0,-1.434747E-1,9.487249E-1,9.284407E-1,1.2513477E0,-1.3316982E0,-1.7507239E-1,-1.5708334E0,-1.1507909E0,-5.289456E-1,8.6533135E-1,-5.523571E-1,-1.6637808E0,6.5912175E-1,-7.2058207E-1,-1.5730203E0,-7.153376E-1,6.288501E-2,8.403539E-1,8.556944E-1,-8.315553E-1,4.6964634E-2,-1.3184017E0,9.723267E-1,-3.5057864E-1,9.8663974E-1,-7.61548E-1,1.1468157E0,2.4106626E-1,3.9070535E-1,-1.1349981E0,1.2378734E0,5.308203E-1,4.3233186E-1,1.1296394E0,1.1667135E0,6.392075E-2,-7.718197E-2,-3.7801262E-2,2.4739448E-2,-4.97825E-2,-6.783967E-2,-8.3034925E-2,-7.6031394E-2,-3.560825E-2,1.09409E-2,-6.3793436E-2,5.439197E-3,5.6995332E-2,-5.7206657E-2,4.6675157E-2,-8.8429905E-2,-3.538237E-2,-1.2548882E-2,4.9106788E-2,-5.9117258E-2,1.6324248E-2,-4.77825E-2,-8.4290765E-2,1.6869135E-3,-6.496174E-2,5.4093827E-2,-1.0016409E-2,1.4918397E-2,6.1494567E-2,-6.625327E-2,4.9841117E-2,2.7572641E-2,-5.2366026E-2,-3.9509352E-2,-7.890904E-2,5.795842E-2,1.6685395E-2,2.3219442E-2,-5.9234828E-2,5.754992E-2,-2.1139657E-2,1.8039785E-2,-6.5824546E-2,6.1826106E-2,2.9657787E-2,-2.213287E-2,5.5795312E-2,4.9732402E-2,-2.4291135E-2,-1.779349E-2,-9.409657E-2,3.88308E-2,6.371072E-2,6.0463417E-2,-8.173599E-3,5.0374534E-2,-1.831824E-2,5.9331488E-2,2.0554252E-2,4.0279012E-2,6.1585646E-2],"categories":[],"categories_nodes":[],"categories_segments":[],"categories_sizes":[],"default_left":[0,0,0,0,0,0,0,0,0,0,0,0,0,0,0,0,0,0,0,0,0,0,0,0,0,0,0,0,0,0,0,0,0,0,0,0,0,0,0,0,0,0,0,0,0,0,0,0,0,0,0,0,0,0,0,0,0,0,0,0,0,0,0,0,0,0,0,0,0,0,0,0,0,0,0,0,0,0,0,0,0,0,0,0,0,0,0,0,0,0,0,0,0,0,0,0,0,0,0,0,0,0,0,0,0,0,0,0,0,0,0,0,0,0,0,0,0,0,0,0,0,0,0],"id":12,"left_children":[1,3,5,7,9,11,13,15,17,19,21,23,25,27,29,31,33,35,37,39,41,43,45,47,49,51,53,55,57,59,61,63,65,67,69,71,73,75,77,79,81,83,85,-1,87,89,91,93,95,97,99,101,103,105,107,109,111,113,115,117,119,121,-1,-1,-1,-1,-1,-1,-1,-1,-1,-1,-1,-1,-1,-1,-1,-1,-1,-1,-1,-1,-1,-1,-1,-1,-1,-1,-1,-1,-1,-1,-1,-1,-1,-1,-1,-1,-1,-1,-1,-1,-1,-1,-1,-1,-1,-1,-1,-1,-1,-1,-1,-1,-1,-1,-1,-1,-1,-1,-1,-1,-1],"loss_changes":[3.3823962E3,6.919906E2,6.697467E2,2.9205054E2,4.4723752E2,5.0194516E2,1.2134009E2,1.1583545E2,1.763028E2,2.9069885E2,9.536716E1,4.0075336E2,1.885227E2,1.2937766E2,3.734619E1,1.08707245E2,3.926538E1,1.281093E2,2.3374222E1,1.2730897E2,7.0322205E1,7.8828735E0,8.604067E1,2.3062091E2,1.19204E2,1.241962E2,5.3828674E1,8.990108E1,3.6213898E1,5.653012E1,9.256592E-1,2.0227142E1,8.463753E1,1.5952881E1,4.955728E1,8.232689E1,2.4705536E1,2.4884857E1,7.214142E0,5.39638E1,5.140376E1,1.2790436E1,8.0660355E1,0E0,1.9573082E1,1.2598938E1,5.439292E1,1.0284663E2,5.035669E1,2.4811142E1,6.9148895E1,1.4954403E1,7.297073E1,2.4120605E1,4.668452E1,5.8983055E1,3.389332E1,2.0209045E0,5.9800266E1,7.682863E1,1.6129578E1,5.2781982E0,0E0,0E0,0E0,0E0,0E0,0E0,0E0,0E0,0E0,0E0,0E0,0E0,0E0,0E0,0E0,0E0,0E0,0E0,0E0,0E0,0E0,0E0,0E0,0E0,0E0,0E0,0E0,0E0,0E0,0E0,0E0,0E0,0E0,0E0,0E0,0E0,0E0,0E0,0E0,0E0,0E0,0E0,0E0,0E0,0E0,0E0,0E0,0E0,0E0,0E0,0E0,0E0,0E0,0E0,0E0,0E0,0E0,0E0,0E0,0E0,0E0],"parents":[2147483647,0,0,1,1,2,2,3,3,4,4,5,5,6,6,7,7,8,8,9,9,10,10,11,11,12,12,13,13,14,14,15,15,16,16,17,17,18,18,19,19,20,20,21,21,22,22,23,23,24,24,25,25,26,26,27,27,28,28,29,29,30,30,31,31,32,32,33,33,34,34,35,35,36,36,37,37,38,38,39,39,40,40,41,41,42,42,44,44,45,45,46,46,47,47,48,48,49,49,50,50,51,51,52,52,53,53,54,54,55,55,56,56,57,57,58,58,59,59,60,60,61,61],"right_children":[2,4,6,8,10,12,14,16,18,20,22,24,26,28,30,32,34,36,38,40,42,44,46,48,50,52,54,56,58,60,62,64,66,68,70,72,74,76,78,80,82,84,86,-1,88,90,92,94,96,98,100,102,104,106,108,110,112,114,116,118,120,122,-1,-1,-1,-1,-1,-1,-1,-1,-1,-1,-1,-1,-1,-1,-1,-1,-1,-1,-1,-1,-1,-1,-1,-1,-1,-1,-1,-1,-1,-1,-1,-1,-1,-1,-1,-1,-1,-1,-1,-1,-1,-1,-1,-1,-1,-1,-1,-1,-1,-1,-1,-1,-1,-1,-1,-1,-1,-1,-1,-1,-1],"split_conditions":[4E0,1.28E2,8E1,4E0,3E0,7E0,1E0,6.0350582E1,8.630708E1,7.225882E1,8.594501E1,3E0,1E0,6E0,6E0,2E0,3E0,6.5E1,5.4739178E1,7.831519E1,2E0,7.433752E1,7.482424E1,6.722545E1,8.48113E1,7.0756775E1,9.400766E1,8.325917E1,8.2275276E1,2E0,7E0,9E1,7.319264E1,5.8023533E1,7E1,7.173597E1,1E0,3E0,1.12E2,1E0,2E0,4.9863186E1,6.82023E1,6.288501E-2,8.796619E1,1.58E2,3E0,8.185519E1,6.157696E1,8.913783E1,7.24523E1,9.429681E1,5.731029E1,9.246903E1,3E0,7.876008E1,6.723822E1,8.9E1,7.173597E1,8.146096E1,9.605283E1,9.8E1,6.392075E-2,-7.718197E-2,-3.7801262E-2,2.4739448E-2,-4.97825E-2,-6.783967E-2,-8.3034925E-2,-7.6031394E-2,-3.560825E-2,1.09409E-2,-6.3793436E-2,5.439197E-3,5.6995332E-2,-5.7206657E-2,4.6675157E-2,-8.8429905E-2,-3.538237E-2,-1.2548882E-2,4.9106788E-2,-5.9117258E-2,1.6324248E-2,-4.77825E-2,-8.4290765E-2,1.6869135E-3,-6.496174E-2,5.4093827E-2,-1.0016409E-2,1.4918397E-2,6.1494567E-2,-6.625327E-2,4.9841117E-2,2.7572641E-2,-5.2366026E-2,-3.9509352E-2,-7.890904E-2,5.795842E-2,1.6685395E-2,2.3219442E-2,-5.9234828E-2,5.754992E-2,-2.1139657E-2,1.8039785E-2,-6.5824546E-2,6.1826106E-2,2.9657787E-2,-2.213287E-2,5.5795312E-2,4.9732402E-2,-2.4291135E-2,-1.779349E-2,-9.409657E-2,3.88308E-2,6.371072E-2,6.0463417E-2,-8.173599E-3,5.0374534E-2,-1.831824E-2,5.9331488E-2,2.0554252E-2,4.0279012E-2,6.1585646E-2],"split_indices":[5,4,4,2,2,5,2,0,0,0,0,2,2,5,5,2,5,4,1,1,5,0,1,0,0,0,0,0,0,2,5,4,1,1,4,1,5,5,4,5,2,1,1,0,1,4,5,1,1,1,1,1,1,1,2,1,1,4,1,0,0,4,0,0,0,0,0,0,0,0,0,0,0,0,0,0,0,0,0,0,0,0,0,0,0,0,0,0,0,0,0,0,0,0,0,0,0,0,0,0,0,0,0,0,0,0,0,0,0,0,0,0,0,0,0,0,0,0,0,0,0,0,0],"split_type":[0,0,0,0,0,0,0,0,0,0,0,0,0,0,0,0,0,0,0,0,0,0,0,0,0,0,0,0,0,0,0,0,0,0,0,0,0,0,0,0,0,0,0,0,0,0,0,0,0,0,0,0,0,0,0,0,0,0,0,0,0,0,0,0,0,0,0,0,0,0,0,0,0,0,0,0,0,0,0,0,0,0,0,0,0,0,0,0,0,0,0,0,0,0,0,0,0,0,0,0,0,0,0,0,0,0,0,0,0,0,0,0,0,0,0,0,0,0,0,0,0,0,0],"sum_hessian":[6.710317E3,2.9920032E3,3.7183137E3,1.9571205E3,1.0348826E3,1.621902E3,2.0964119E3,1.5831329E3,3.7398755E2,6.753711E2,3.5951144E2,8.6941187E2,7.5249005E2,4.7202982E2,1.624382E3,3.2643073E2,1.2567023E3,2.6442987E2,1.0955769E2,2.8624573E2,3.8912537E2,2.4052254E2,1.1898889E2,5.593199E2,3.1009198E2,1.7685074E2,5.756393E2,1.678989E2,3.0413092E2,5.702334E2,1.0541486E3,1.7434904E2,1.5208168E2,9.455323E2,3.1116998E2,1.4590152E2,1.1852835E2,2.6086208E1,8.347149E1,1.8172754E2,1.045182E2,2.0580989E2,1.8331549E2,1.6451244E2,7.601011E1,6.117173E1,5.781716E1,1.8425195E2,3.7506793E2,2.1017871E2,9.9913284E1,6.1454636E1,1.153961E2,4.9941678E2,7.622252E1,1.0950784E2,5.839105E1,1.7859723E2,1.2553368E2,1.6544167E2,